-0.49647471
-0.09546354
-0.01036027
0.02078232
-0.02611288
0.25202268
-0.04245973
-0.20414741
0.06153874
0.22786579
0.08379541
-0.05664029
0.19335982
0.02740232
-0.30578163
-0.04792331
-0.13288212
-0.28815839
-0.12806085
-0.04323007
0.17154126
0.05982063
0.04119046
-0.09512385
0.21583118
-0.14310147
-0.22388017
-0.13848072
0.15796745
0.20711021
-0.05671202
0.10928699
-0.01266465
-0.05920689
-0.08266887
-0.04013959
-0.16435027
0.11881485
0.02320042
0.16447312
-0.00227709
-0.28929245
0.16258469
0.03597000
-0.15530211
0.07974971
0.06395593
0.25945523
-0.05650653
0.12334199
0.01167118
-0.30548602
-0.37017149
-0.36773109
0.06624987
0.15588687
0.25490233
-0.01511823
-0.01199140
0.10749497
-0.29534486
-0.23503642
-0.09035187
-0.33159521
0.01467509
0.22771950
-0.16892278
0.08602570
0.12674519
0.06030501
-0.11054620
-0.10843592
0.00388163
-0.38885534
-0.06885830
-0.09406856
-0.03087559
0.24266620
0.19888501
0.20383017
-0.15864369
-0.10509991
0.05620237
0.10724388
0.29406404
0.17001966
0.27491710
-0.02588266
-0.23739299
-0.31121746
0.18063109
-0.19895464
-0.17934088
0.13090572
-0.03338014
-0.09869123
-0.04719426
0.15318736
0.08963804
-0.04226442
-0.06226264
-0.02501977
0.00770626
-0.05865186
-0.13174549
-0.12343352
0.00483176
-0.06643870
-0.24367099
-0.17769927
0.05681302
0.05117824
0.07905696
0.14411685
0.10011013
0.15959266
-0.16905174
-0.13758510
0.12016162
0.05503767
0.09017568
-0.04810394
-0.26746595
0.08620900
0.12815958
0.02053099
0.05281210
0.03873751
0.09541655
0.06510582
-0.14088073
-0.06052293
0.09064772
0.02870077
-0.15075606
-0.16481590
-0.30265135
-0.55260825
0.20102780
-0.01289949
-0.33114839
0.26931769
0.15986997
-0.10758948
0.31767499
0.21335256
0.06060430
0.14872028
0.01240594
-0.20641360
0.14418310
-0.28951305
-0.35435265
-0.27013028
-0.34355342
-0.31884426
0.09535336
0.13888997
0.17735925
0.00575767
0.14874166
-0.00678020
0.06872147
0.00777789
-0.14433418
0.22566923
-0.05327783
-0.19718540
0.07185731
0.11568444
0.12859224
0.08018402
0.08799491
0.12863131
0.01125974
-0.05413825
-0.15440384
-0.19507620
-0.31142277
-0.24451210
0.17696102
0.11745614
-0.13969317
0.06610578
-0.16263060
-0.21326451
-0.27809709
-0.29784337
0.10787071
0.05936640
-0.02164816
-0.02164352
0.03727751
-0.04754576
-0.01408450
0.02401899
0.05905921
0.00096111
0.22363938
0.11480101
0.00988557
-0.16663668
-0.26141322
-0.00268928
-0.06017454
0.18795648
0.13494888
-0.12880969
0.14463383
0.23897803
-0.07520280
-0.12672187
0.15189679
0.08681318
-0.13824956
-0.19327189
0.07613923
0.01533168
-0.08667117
0.03776902
-0.19525972
-0.18281178
-0.03982901
0.14476201
-0.00310203
0.09985019
0.15526016
0.05739604
-0.18829320
0.20540614
0.04278854
-0.28767392
-0.11734633
0.20465192
0.13260704
0.01462796
0.20275350
0.06988041
-0.00157378
0.04298702
-0.18890561
-0.20046954
-0.27252856
-0.21915786
-0.01125514
-0.04799451
-0.16595915
0.19443271
0.13514054
-0.25478396
0.09406478
-0.24934889
0.26827848
-0.03529133
-0.29765373
0.05495047
0.01164301
0.00997015
-0.14639249
0.10546672
0.01665254
-0.05705437
-0.13057351
-0.20086038
0.20592077
0.14693585
-0.15695636
0.09598434
-0.10427617
0.15038136
0.02723564
-0.21326204
0.06080499
0.15725830
-0.36907163
0.15350035
0.20671077
-0.25537878
0.12681046
-0.08662702
0.19750845
0.00126747
-0.18028906
0.07273389
0.06675295
-0.13707538
0.13841440
-0.08706301
