-0.32344869
-0.02340547
-0.32816789
-0.03893474
-0.01006543
0.24113500
-0.41097477
-0.05591362
-0.26590353
-0.02840456
-0.05259021
0.04845471
-0.23440225
-0.29772028
-0.17585886
0.23393247
-0.02368812
0.26344520
0.19404909
-0.44372210
0.21674253
0.01484593
-0.30990022
0.03701392
-0.20463625
-0.06526490
0.33468965
-0.09177316
-0.23526771
-0.19369711
-0.03364421
0.13403897
0.20665041
0.02615641
0.09971123
0.24218541
0.07342502
0.17771102
-0.22948813
-0.01231863
0.02225953
-0.33010364
-0.01291305
-0.30518320
0.02427584
0.04668093
-0.12488262
-0.04133996
-0.02140274
0.33809856
-0.05925316
-0.15495801
0.16859384
0.01848211
-0.28459957
-0.08045062
-0.24491112
0.02958757
-0.17207800
0.11114128
-0.19033805
-0.11792122
0.05201853
-0.18177606
0.34881562
0.12446615
-0.53177404
-0.44594055
0.11277517
0.00922076
0.26611912
-0.05643234
-0.02474843
-0.12867576
-0.58094120
-0.10262555
-0.22829884
-0.51126570
0.06054726
-0.49382874
-0.07443459
-0.20842892
-0.00083993
-0.39220595
0.25265831
-0.12970750
0.09750032
-0.05002322
0.05953847
-0.19866464
-0.35276717
-0.12380435
-0.02136804
-0.34353098
0.03849603
0.01752965
0.00149704
0.06911293
0.10113105
-0.19095701
0.09003710
-0.18704472
0.01623781
-0.43523085
-0.37682843
0.01703306
-0.08882925
-0.22636399
-0.12064601
0.00045140
-0.07746523
-0.34046677
-0.05406344
0.29068103
-0.35966086
0.02702246
-0.02849925
0.16343875
0.12328684
0.06211028
-0.33383241
-0.12011597
-0.06021085
-0.18311985
-0.20230931
0.14636740
-0.45853776
0.05515776
0.24040776
0.09725382
0.04561242
0.08996402
-0.21458079
-0.08653947
0.13161319
0.20493774
0.05856386
-0.03915550
-0.16225238
-0.06338608
-0.31116393
-0.07269130
0.18252575
-0.30979684
-0.13667735
-0.25643894
-0.06951997
-0.31631634
0.12197786
-0.06728508
-0.23882698
-0.18603389
-0.02971492
-0.05127540
-0.10786849
-0.27040666
-0.00728883
-0.13531135
-0.13555004
-0.24910994
-0.13958211
0.08706027
0.09185813
-0.32749525
-0.17570131
-0.14169692
-0.09523685
-0.34770942
-0.01601966
0.10661966
0.06330406
-0.20075360
-0.08006363
-0.03624342
-0.04046413
0.29553786
-0.33146322
0.06345311
-0.27022463
0.16046795
0.00532230
0.10652208
0.06748177
0.01862437
-0.12859231
-0.39837238
-0.11237570
-0.03012857
-0.24698773
-0.26006314
-0.40894222
0.03954912
0.19788337
-0.10685310
-0.14639480
-0.27012804
0.28417054
0.10134785
-0.00654971
0.10030521
-0.16200151
-0.30108163
-0.22287901
0.08589859
-0.27014741
-0.20023263
-0.01093357
0.13413376
-0.02760754
-0.07107895
0.18240142
-0.10222358
-0.15002838
-0.15921213
0.05701749
-0.31519571
-0.16547632
0.07394876
-0.01505833
-0.10523177
-0.31720319
0.00319538
0.26139724
-0.04459075
0.22037446
-0.28345460
-0.02764762
-0.22417751
-0.33792201
0.08021224
0.02434688
-0.20050722
0.34320289
-0.16040269
0.07331517
-0.29225954
-0.05117182
0.10667716
0.13292044
0.09713287
-0.18566397
0.15560804
-0.03131102
0.09404322
0.00891475
0.14149439
-0.01393032
-0.03280575
-0.35213962
0.09587920
-0.09395270
-0.02635490
-0.20999724
0.10319898
0.04760351
-0.46213478
0.15625045
0.09810257
-0.03971069
0.07647829
-0.00324616
-0.19701798
0.12609129
-0.03564347
-0.17132162
-0.43200690
-0.27888125
-0.04617227
-0.27503556
0.05520829
0.00995747
-0.42790854
0.00642428
-0.32596955
-0.07786929
-0.50625938
0.10300975
-0.04237295
-0.09843326
-0.31708139
0.05746893
-0.06863650
-0.38612249
-0.18199180
0.02946369
-0.22555578
-0.06660928
-0.19722040
0.00528591
-0.00395669
-0.06942125
-0.28070644
-0.28201628
-0.11504547
0.00855719
-0.39748630
-0.23641250
0.14237048
0.12394991
-0.37399364
0.07079408
-0.17498316
0.00192372
-0.10338514
-0.05461864
0.09144525
-0.59744978
0.27792361
-0.03130225
0.15331495
0.07717588
-0.07804486
-0.20480666
-0.26105651
-0.13284996
-0.03485643
-0.26153103
0.01774705
-0.20587085
0.00439237
-0.08156693
-0.18168126
0.01014898
-0.16840471
-0.44868782
0.06801593
-0.20609966
-0.30255887
-0.01314075
-0.20804386
-0.08571865
-0.32199323
-0.43323997
-0.07024381
0.12257805
-0.13701935
-0.06498076
-0.44624707
0.14022373
-0.04053966
-0.35268140
-0.12590100
0.13502255
-0.17747183
-0.06066018
-0.01867853
-0.03044393
-0.14827450
-0.09230764
-0.00828060
-0.06606428
-0.35950813
0.04249535
-0.02224503
0.13550739
-0.18227692
-0.01241054
-0.51924992
-0.12664393
-0.27669078
0.14156494
-0.16726147
-0.57478261
-0.33560339
-0.20524278
-0.07278956
-0.19542605
0.01657327
-0.71180701
-0.44358164
-0.08072486
-0.78348452
0.01382939
-0.36792469
-0.25913569
-0.11142231
-0.15617371
0.15909040
-0.12174297
0.06536740
-0.12715128
-0.03572105
-0.02446517
0.03617186
0.00648331
-0.42866594
-0.01309663
0.03981612
-0.36173543
0.07320592
-0.37514880
-0.35465521
-0.11356495
-0.10477436
-0.32284442
-0.21460889
-0.19555481
0.00279766
0.16728579
0.01546164
0.09629489
-0.20897770
0.15193462
-0.04915677
-0.27990764
-0.23471004
0.14164582
-0.46880201
-0.35696122
0.00625150
0.01391106
-0.06965440
-0.45537919
0.04662277
0.01794667
-0.05243611
0.03228794
-0.16742675
0.06185670
-0.34186763
-0.11577921
-0.39170387
-0.00048560
-0.05963985
0.14913465
-0.25833893
-0.35835478
0.07296515
-0.03422530
-0.00577610
-0.20761426
0.01427939
-0.32706669
-0.28632879
-0.01532180
-0.34232566
-0.04461211
-0.26493809
-0.26756388
-0.13375837
-0.24836183
0.22642817
-0.00460950
-0.07171517
-0.14693707
-0.18499672
0.20086318
0.10177250
-0.11017931
-0.07587931
-0.13066272
-0.26275122
0.20551552
0.07769825
-0.32894146
-0.06379519
-0.27055380
-0.22227740
-0.11851452
0.13405082
-0.30175856
0.04186390
0.02056191
0.08574054
0.07162090
-0.14115185
0.26753762
-0.16936637
-0.01115843
-0.20435074
-0.16438206
0.05949029
-0.30665621
-0.11899458
0.19380069
-0.28165215
-0.23942165
0.13301000
0.25396323
0.05995457
0.08108775
-0.33888558
0.06671108
-0.05548570
-0.08542546
0.12326737
-0.16870746
-0.16918145
0.34326044
-0.30318499
0.07455468
-0.19369727
-0.00958920
0.13528192
0.03393730
0.15844394
-0.00856397
0.28541806
-0.08366293
0.00884631
-0.05842378
0.16565932
-0.17581901
-0.07669276
-0.21734445
0.05665414
-0.06771555
0.02536627
-0.10675386
-0.01766346
0.07076278
-0.28317440
-0.40679610
-0.12456378
0.14215313
0.24765313
-0.01218634
-0.16968216
0.04759189
-0.23663066
-0.35687938
-0.10454527
-0.16657999
-0.25357974
-0.01763298
0.03369423
0.04388614
-0.03941149
0.23745359
0.01276362
-0.33809784
-0.22111286
-0.09313561
0.04807302
-0.15936092
-0.28628427
-0.03255252
0.05764438
0.06605113
-0.62780041
0.04304257
-0.18867911
-0.08363287
-0.32020977
-0.15225148
-0.20976618
-0.08529207
-0.06609250
0.26453599
0.02732514
-0.11996818
-0.08543245
-0.46463400
-0.21223730
0.15445794
0.25633249
-0.36838588
-0.44543180
-0.24331741
-0.16651447
0.03155177
-0.00429244
-0.38350692
-0.19524020
-0.12626241
-0.16735606
-0.13988568
0.05662769
-0.12266985
-0.01675123
0.15399010
-0.09057219
-0.07971643
-0.08239531
-0.03046596
0.00263550
-0.03363275
0.13139671
-0.56530225
0.04380107
0.04083073
-0.00634914
-0.43632552
0.21177025
-0.36195686
-0.51305592
-0.38587388
0.04778036
-0.46611145
-0.53853059
0.20237991
-0.07138611
0.01938270
-0.41715941
0.02418723
-0.31598848
-0.01549619
0.08407585
-0.01077747
-0.09733760
0.11921014
-0.11479999
-0.10591566
0.10754460
-0.00332497
-0.18085720
-0.00664359
-0.23544535
0.03713485
0.02839617
-0.11767210
-0.31237817
-0.16944513
-0.09216903
0.14379150
-0.38014948
0.17337948
-0.33450159
-0.28623283
-0.62920034
-0.01677508
-0.01461650
0.12976822
-0.19430798
-0.05031180
0.31454599
-0.05466439
-0.07366239
-0.12932445
0.20668575
0.08106990
-0.11488430
-0.07029038
0.22449659
-0.10383354
0.10277859
-0.42672703
-0.13110787
0.12155885
-0.14888132
0.03009640
-0.10525953
-0.24756490
0.12267930
0.06073103
-0.12828502
0.12460030
-0.06235949
-0.08224765
-0.12893677
-0.26252222
-0.23121925
0.09269919
-0.07502808
-0.31677139
-0.06126558
0.04938608
-0.29738489
0.00441238
-0.29127774
0.21141899
-0.21177863
0.14114559
-0.06478189
-0.00141684
-0.08038032
-0.12717555
-0.08989716
0.10865672
-0.27970544
-0.19559146
-0.25951219
0.21053979
0.09440081
-0.44911525
-0.28523037
0.17562564
-0.31660673
0.20573765
-0.34376219
-0.49949867
-0.01818342
-0.01901732
0.07146052
0.01025036
-0.28775808
-0.06290974
-0.18520135
0.21073189
-0.10879648
-0.27324238
0.00792003
-0.14659201
-0.06089731
0.07103336
-0.00863801
-0.21517260
-0.08936354
0.14622685
0.08555918
0.05400471
0.08757281
-0.20374031
0.18479078
0.06422292
-0.00212485
0.06303725
-0.04547825
-0.05551152
0.07790157
-0.06732708
0.02584610
0.06147398
-0.08003554
-0.07944950
0.00918784
0.08694877
0.01545252
-0.04122381
-0.00061272
-0.06672159
-0.05808751
-0.00283881
-0.07661580
0.04248873
0.03848152
-0.06447755
-0.08783351
0.01376777
0.03721818
0.08542924
-0.06892502
0.01285946
-0.01537224
0.06264122
-0.04177897
0.03281654
0.06098179
0.00268009
-0.01883493
0.02125457
0.01650162
-0.00023128
-0.03880836
0.03731728
0.02452758
-0.03501701
0.02952753
0.02457936
-0.01424161
0.02572990
0.05994752
-0.00011684
0.05479969
-0.06212442
0.00966883
0.06806859
-0.07834601
0.01514469
0.03224062
-0.01410091
0.02186547
-0.05481967
-0.06638626
-0.02918688
0.04860542
0.06095640
0.07799225
-0.24672657
0.14471638
-0.05853622
0.09337566
0.19782977
-0.11460762
-0.05766830
0.07960176
-0.53197062
-0.11226048
-0.12227325
-0.06196680
-0.17510328
0.14110674
0.07921793
0.05363294
0.15277070
-0.07352134
-0.22026660
-0.25082970
0.04867807
0.01438830
-0.29188207
-0.09311318
-0.10003816
0.02519743
0.04806249
-0.31185097
0.01352058
-0.18145040
0.03852205
-0.13949685
-0.15636283
-0.20185120
0.16674097
-0.36157942
0.02770185
0.15783532
-0.14937522
-0.12159003
-0.34589401
-0.32762617
0.23991309
0.03706834
-0.30819756
-0.15360498
0.01455081
0.04458443
0.03834437
0.23705512
-0.26252955
-0.12843634
-0.07356349
0.10425331
-0.05522940
-0.08970288
-0.08109831
-0.20376426
0.00281266
-0.00575320
-0.18057436
-0.17742805
-0.16505788
0.03200733
0.10066552
0.16347621
-0.29155678
-0.04752439
0.07160765
-0.01096685
-0.10404930
0.04099467
-0.13008118
-0.26670635
-0.17947097
-0.01013037
-0.08990374
0.04940168
0.01306712
-0.20200311
-0.02500896
-0.21179865
-0.15164372
-0.25180691
0.08364095
0.18164898
0.16090338
-0.21951416
-0.01864837
-0.10056727
-0.31619886
0.07225786
-0.00711307
-0.14580156
0.03860984
-0.13182774
0.02438519
-0.11120242
0.02505162
-0.26218402
-0.04056868
0.08043890
-0.04778948
-0.27643800
-0.13194619
0.25037146
0.14965832
-0.46948308
0.21513145
0.07621200
0.00064528
-0.00872253
-0.02684716
0.03994080
-0.18811493
0.13691241
-0.06074630
0.14283690
0.10246024
0.03892889
0.01839271
-0.11922818
0.01270032
0.18299317
-0.26761216
-0.03980177
-0.06110208
0.08630317
0.09024582
0.12337065
-0.25620687
-0.24337082
-0.00415467
-0.03228860
0.03160648
0.00189065
0.03238689
-0.04482318
-0.18722482
-0.08417913
0.04549102
-0.16691093
0.12824082
-0.16648051
-0.23809043
-0.34261277
-0.16274603
-0.22717322
0.10700037
0.01751430
-0.08365314
-0.07987469
0.03403150
-0.06413913
-0.40717581
0.05463010
0.01400528
-0.05934933
0.11589172
-0.16823938
0.03439822
0.08998755
0.12632731
-0.33491981
-0.13368905
-0.16016886
-0.01291796
-0.28248304
-0.25543374
0.18814929
0.18452404
-0.12905304
0.17410816
0.01918867
0.05258167
-0.10984129
-0.08236250
-0.02443969
-0.09144998
0.08800300
-0.16733859
0.08617043
0.09691215
0.02570966
-0.27088636
-0.02891943
-0.00975636
-0.01785666
-0.03018632
-0.04192277
-0.18860106
0.09083581
-0.14505580
-0.42554095
0.21746427
0.15749286
0.01287490
-0.26826945
0.21912472
-0.31882304
0.03846057
-0.37625653
-0.05626449
-0.28961441
0.07191418
0.11717392
-0.67331761
-0.10439201
0.22122537
-0.38131398
-0.50232071
-0.17336264
0.09168436
-0.23089674
-0.04733792
-0.03924573
0.04455609
0.01472138
0.11889313
-0.48725185
-0.01126937
-0.08369284
-0.27047759
-0.32840320
0.07704262
0.27845612
-0.29172161
-0.01465825
0.00612490
-0.30102679
0.14459190
0.24991557
-0.18483715
-0.08254531
0.07984801
-0.01594948
-0.16747323
-0.31163800
-0.32372430
-0.69853199
-0.13696449
-0.20990770
0.13885245
-0.13163824
-0.38604352
-0.35251963
0.01663828
0.02173895
0.28878742
-0.47790968
0.10515148
-0.07544902
-0.16346608
-0.00794618
-0.29755625
0.19943687
0.35731474
0.07187310
-0.30996484
-0.33534992
0.08119404
0.01354475
0.18499666
-0.09904263
-0.04003793
0.05073961
-0.56165355
-0.05605545
-0.20845538
-0.50887161
0.19154954
-0.76200420
0.09433682
-0.30606404
0.02876465
-0.37741092
0.23743907
-0.10866148
-0.05240717
-0.25621614
0.04980980
-0.17845918
-0.60950655
-0.03747456
-0.01360108
-0.13595051
-0.28959742
-0.40063691
-0.03665403
-0.02376096
-0.03634694
-0.42941830
-0.03336808
-0.21741727
0.06142905
-0.38499695
-0.40293178
-0.03462927
-0.09276238
-0.13890658
0.07089869
0.02136544
-0.17803238
-0.18006164
-0.12973854
0.15285794
-0.24241398
0.11236933
-0.04463764
0.06640670
-0.00353190
0.02169099
-0.29499662
-0.17423001
-0.02951021
-0.12094292
-0.08922055
0.00849157
-0.71970671
0.10486942
-0.44775724
0.01174622
-0.02095372
0.07972743
-0.22690231
-0.12712884
-0.02639705
-0.24645330
-0.26146564
-0.12556972
-0.07397305
-0.26941806
-0.18192342
0.16078201
-0.07747445
-0.47051516
0.12319574
0.02316548
-0.34690437
-0.13751285
-0.11612569
-0.08712482
-0.05623879
-0.03745685
0.09954816
-0.07304457
0.01865630
-0.48550206
0.11581767
-0.23919880
-0.37320599
-0.21615806
0.13484603
-0.04562917
-0.33915958
0.06360473
0.05805999
0.09276991
-0.01380889
-0.00453058
-0.39123201
-0.16700405
0.06564377
0.18575814
-0.29271072
-0.30183488
-0.35188654
-0.24336210
0.06958953
-0.07148400
-0.57551068
-0.24486379
-0.03980892
-0.38143215
0.08865241
-0.20786707
-0.08558274
-0.30008638
-0.04312314
0.04886644
-0.15896179
0.07753438
-0.49393916
-0.07188038
0.19163421
-0.01642640
-0.32862508
-0.05059067
0.02037326
-0.10454401
0.14846988
0.03448747
-0.03527826
-0.26048079
-0.30710930
-0.11768504
0.09532132
-0.11944056
-0.11495722
-0.27740237
0.02724933
-0.37627122
-0.26575062
-0.36576459
0.10001346
0.01181275
0.18554965
-0.10503826
0.04944363
-0.02148763
-0.17361362
0.09964714
0.08132090
-0.25336048
-0.02870164
-0.32181895
0.15086736
0.08669344
-0.26051965
-0.44044983
-0.17341790
-0.15869989
0.24686284
-0.59879684
-0.25199690
-0.00491497
-0.01962770
-0.35060573
0.08849889
-0.04650643
-0.04026714
-0.10721164
0.07468343
-0.00064867
-0.29607895
0.10619900
-0.17656818
0.07762116
0.02619562
0.02897684
-0.14702937
0.02659485
0.07827017
0.09738470
-0.01659795
0.06364858
-0.16233523
0.04976772
0.09942182
-0.15035841
-0.09765730
-0.43053150
-0.42394984
0.01358130
-0.06022123
-0.24289054
-0.02830950
-0.01327067
-0.13644107
-0.32763296
-0.36865634
-0.13343650
0.18813467
-0.56300175
-0.24374498
-0.48768735
0.12393950
-0.09749422
-0.13527143
-0.18241188
0.01550113
-0.19953021
-0.06247361
-0.23397869
-0.22392564
-0.09789716
-0.13649002
-0.11060239
-0.37956309
-0.38805291
0.05554966
-0.13582762
0.09704623
-0.22388916
0.01930603
-0.41664231
-0.11357842
-0.08507526
-0.09512082
-0.11163648
-0.49595648
-0.20672292
-0.27070308
-0.05748223
-0.24905628
0.08378638
-0.64306998
-0.19867122
-0.15777767
-0.22855565
0.05718169
-0.15312670
-0.02267916
-0.11593144
-0.12815696
0.00097562
-0.04344037
-0.33661160
-0.06889759
-0.14187180
-0.32883623
0.00443474
0.12779041
-0.16649890
-0.26567224
-0.10765848
-0.16110730
0.05306736
-0.16549636
-0.16552535
0.07598712
0.11022596
-0.10480624
-0.48888466
0.21270469
-0.15836442
0.16660801
-0.41697422
-0.19798847
-0.44727492
0.06648396
-0.15035701
-0.22425590
-0.22270128
-0.03083148
-0.05974294
-0.20722368
-0.37123969
-0.17641890
0.14754303
-0.29492697
-0.18327262
-0.19646306
-0.12647618
-0.00675475
-0.10032006
0.07622411
-0.13963535
0.20516662
-0.50983751
0.02327369
0.01168896
-0.16614810
-0.08801880
-0.32780063
-0.22698480
-0.04664314
0.08049792
-0.08872063
-0.21541144
-0.23525210
0.01337053
-0.08841269
-0.20363951
0.04541530
0.00245553
0.09817700
0.03113517
-0.03601086
-0.10387311
0.02269867
-0.34551913
0.09622823
-0.06979412
-0.34712532
0.08468136
0.04964674
0.11768356
-0.27454880
0.01913692
0.00609343
0.06641725
0.05151674
-0.00418406
-0.07087591
-0.08425748
-0.03740315
0.00268657
0.04012953
-0.11229798
0.01602383
-0.10683164
-0.05266866
-0.02790990
-0.01765131
-0.23219223
-0.03902692
0.06508034
0.12288707
-0.15721141
-0.00353816
-0.01055546
-0.20799574
0.03584517
0.08632895
-0.05509620
-0.02109264
-0.09435003
-0.01176056
-0.02267829
-0.02978199
-0.18524805
0.01566663
0.02644412
0.15744609
-0.10607883
-0.04689888
0.09724464
-0.01219434
-0.08975327
0.08959677
0.04616120
0.01728644
0.02453224
-0.07159173
0.02808133
-0.15771525
0.05643768
0.03213587
0.03369624
0.03593957
-0.06411479
-0.04246851
0.03943833
-0.02087401
0.00378659
-0.16401245
0.02967324
-0.02697839
-0.13944504
-0.03281035
-0.18746272
0.04111062
-0.13839436
-0.22683263
0.14681178
0.00581129
-0.05471833
0.13818996
0.02916948
-0.18901138
-0.02579033
-0.05362900
0.13461334
-0.25384960
-0.07987399
-0.09635881
-0.08651911
-0.12648821
0.16943991
-0.02817309
-0.17800574
0.08402710
-0.14845236
-0.13312805
-0.10054392
-0.22496614
-0.13430007
-0.15589231
0.01647540
0.06930881
-0.01313056
-0.17745218
0.05004615
0.10411072
-0.09395700
0.16883667
-0.03596443
0.01509956
0.01917267
0.01303877
0.16906996
-0.15448849
-0.05481523
-0.12309712
0.01784680
-0.15659209
0.12605387
-0.06544299
-0.07067533
0.00938287
-0.07063831
0.04934803
-0.10399359
-0.21556610
-0.08902394
-0.16802275
-0.11779466
-0.05425586
-0.14198193
0.00752823
0.13620104
-0.12903635
-0.21535391
0.02337205
-0.14113212
0.01068819
-0.19394608
0.10750487
0.01416178
-0.26873130
-0.04986837
-0.05330919
-0.40816951
-0.34346899
0.14389932
-0.38943774
0.09820011
0.04914741
0.17454410
-0.09420022
-0.03491277
0.17816007
0.04965147
-0.18266658
-0.07397617
-0.01715472
-0.39294598
-0.08399351
-0.05678484
0.04888303
-0.29674211
-0.13218506
0.07411911
0.08609858
0.03808427
0.11607935
-0.20674676
0.06770150
-0.17630021
-0.19810373
-0.05119499
0.00623715
-0.07681961
0.21751109
-0.16205558
-0.24720146
-0.16904545
-0.05513651
-0.05115408
-0.06677186
0.03475103
-0.19915892
0.00650498
0.05660084
-0.28596175
0.03910961
0.00851838
-0.02770970
-0.06250937
-0.25736824
0.13381246
-0.15736634
-0.02429845
-0.20146774
0.08456840
0.23434985
-0.22379324
0.07226962
0.11218591
-0.36001781
-0.22849201
0.09833366
0.12565838
0.19741073
-0.07904829
0.10755296
0.20283288
-0.31073406
-0.11627522
0.07921535
-0.10776475
0.21927719
-0.17270240
0.00786085
-0.08574428
0.02654628
-0.21101369
0.21754012
-0.05813713
0.01230743
-0.15276204
-0.07578730
-0.24851659
-0.35001263
0.16849399
-0.05559973
-0.16742322
-0.03843437
-0.17150901
-0.02476324
-0.10928393
0.05801760
-0.27064034
0.07475670
0.03443240
0.04760626
-0.26635391
-0.25173530
0.06246191
0.03306541
0.08502108
0.20827265
0.02216202
0.03481491
-0.08983658
-0.10958923
0.16441473
-0.14209934
-0.03289855
-0.06574407
0.14952244
0.07939650
-0.02568728
-0.10683917
-0.05176000
0.02656488
0.04475340
-0.02696746
0.11305445
-0.18564881
-0.00573255
0.01739950
-0.13948292
0.07179029
-0.32976219
0.07353594
0.22845189
-0.24759912
-0.07946248
0.06563046
0.00352584
-0.11940135
-0.01447650
-0.21378760
-0.31296587
-0.00511942
-0.05469311
-0.07795154
0.05996872
0.27254781
-0.38760161
-0.09368258
-0.27661008
0.13983825
-0.00304721
-0.24196641
-0.14537545
-0.09976623
-0.06718066
-0.32985321
-0.09229448
0.23091258
-0.03601934
0.09774590
-0.02566674
0.03157258
-0.02656610
-0.15560804
0.08272499
0.17533584
0.00726430
0.24058577
0.07262079
0.05469500
-0.29624513
0.12943998
0.21945225
-0.07713451
0.16259398
-0.07630800
-0.06610107
0.03672601
0.25776771
0.14044707
-0.10979731
-0.31203258
-0.08882637
-0.10754135
0.03010871
-0.23595656
0.00070127
0.11441576
0.03589760
0.04795170
0.06694064
0.08578204
-0.27580163
-0.17182356
0.04069530
-0.24398485
-0.09364837
-0.05576758
-0.25524870
-0.14093778
-0.18551598
-0.34134528
-0.24955833
-0.00158988
-0.03470492
0.25244382
-0.14545800
0.01441288
-0.36375368
0.01660817
-0.01043770
-0.15217707
0.08560145
0.09749566
-0.34577832
-0.21594429
0.08210558
-0.07833603
0.04077341
-0.14132908
-0.03519153
-0.10829879
-0.38554871
0.02425585
-0.21312557
0.13093740
-0.40268272
-0.01709837
-0.34358060
-0.08748643
-0.17887129
0.03557541
-0.07727022
-0.24655652
-0.13812806
-0.04555831
0.01685801
-0.15829071
-0.05703526
-0.40078381
-0.10982640
-0.13250628
-0.20026892
0.03507116
-0.20888615
0.06200396
-0.01717660
-0.48438075
0.15981354
0.05918777
-0.06873029
-0.11048770
0.02671229
0.05502927
-0.11653061
0.20063959
0.07365473
-0.36772007
-0.04049933
0.36698020
0.17752752
0.02316866
-0.04356151
-0.28559631
-0.26267123
-0.10364134
-0.09330214
-0.14491796
-0.31423616
0.06053601
0.14247507
0.03437617
-0.06100012
0.04605553
-0.12559667
-0.14070550
0.13364381
0.07302637
-0.30471376
0.17815219
-0.12216296
-0.04954904
-0.11158709
0.24541435
-0.16250324
0.39791355
0.10086051
0.30097589
-0.20908530
0.03968436
-0.06510468
0.09871661
-0.08911715
-0.11734698
0.02736571
-0.16966134
0.05562775
-0.11962213
0.02974199
-0.03134127
-0.21792743
-0.22459590
-0.01389471
-0.17517537
0.09150290
-0.05819610
0.09053093
-0.09592519
0.30873576
0.16676201
0.02629703
-0.04788113
0.02796804
0.04768403
0.07679927
-0.41220477
0.12850982
-0.11937802
-0.22392808
0.11328604
-0.10487436
-0.36172217
0.12341714
0.09425589
0.04450789
0.09634092
-0.07863339
-0.03237767
-0.05015540
-0.21980180
-0.24410790
-0.02580304
-0.39348075
-0.07176477
-0.29696676
-0.18368575
-0.28535113
0.17439494
-0.53541827
0.03351903
-0.26002935
0.07613105
-0.10822600
-0.08612756
-0.02855982
-0.29206145
0.00110067
0.11465373
-0.49209112
-0.10556664
-0.41256678
0.10403661
0.01834838
-0.18143523
-0.41013518
0.18931606
-0.10965806
0.19314384
-0.47165886
-0.33603314
0.10914863
-0.07544284
-0.04767633
0.04003008
0.07124612
-0.18666908
-0.05166934
0.04488392
-0.05524889
-0.36025164
0.09270339
-0.19429131
-0.05162616
-0.04484263
-0.00698524
-0.32160637
0.01784534
0.06863039
0.16907242
-0.00265875
0.18555231
-0.33188319
0.17405099
0.06695475
0.02452331
-0.17209297
0.02952265
-0.03592211
-0.00836531
0.03397541
0.02587150
-0.19204353
-0.13235378
-0.05337637
-0.12236261
-0.01257202
-0.17126627
-0.08756807
-0.54263371
0.09347081
-0.46138939
-0.29728463
-0.41023180
0.05286352
-0.11962964
0.13915397
-0.03222802
0.09978322
-0.00332557
-0.06393885
-0.19032137
0.02750245
-0.44799319
-0.16692072
0.01626071
0.12061570
0.09324321
-0.11074461
-0.23627642
-0.21069106
-0.06954274
0.12094018
-0.11632709
-0.24153259
-0.05704702
0.05863265
-0.26266959
-0.04645042
-0.15337682
-0.02628033
-0.30154648
0.00665845
-0.03482149
-0.39663836
-0.01770622
-0.25524148
-0.13616610
0.06836622
-0.05885436
-0.00490496
-0.00963938
0.12816414
0.07392377
0.00465961
-0.01164041
-0.23678088
0.04603552
0.06522457
-0.11365268
-0.22687164
0.10535210
-0.22897913
-0.04670351
0.03615369
-0.23781045
-0.04293744
0.09857125
-0.14072654
0.13428780
0.27080446
-0.36269587
-0.08704032
0.15589596
-0.16431063
0.10149214
-0.07831027
-0.44598511
0.08120850
0.14211427
-0.17563449
-0.03430706
-0.20276317
-0.18447495
0.20499103
-0.08794080
0.15091969
-0.40850911
-0.17160663
-0.06867096
0.04183388
0.20957817
0.10480868
0.18250251
-0.02684413
0.02171042
-0.11972353
0.02643089
0.01630681
-0.09425472
-0.15121935
-0.24080181
-0.15632135
-0.03180707
-0.54383028
-0.24117309
0.02843612
0.06903335
0.06277473
0.02894568
0.10714497
-0.32228568
0.02107852
0.02903323
-0.06787376
-0.02313528
-0.01951407
-0.03575579
-0.14164777
-0.03286095
0.00051856
0.04682416
0.18779688
-0.09226067
-0.04586988
-0.33093366
0.24316496
0.07535006
-0.03158401
-0.16840079
-0.19392335
-0.11092655
-0.28972656
0.13344449
-0.22852755
-0.33751887
0.02926183
0.07524723
-0.09028138
-0.12851682
0.17766048
-0.14120001
-0.20772144
-0.11336834
0.09716784
-0.24175662
-0.00273626
0.12892643
-0.11577652
-0.17355315
-0.07513935
-0.08567639
0.27258641
-0.04588879
0.20865159
-0.05059375
0.04994341
-0.23792727
-0.15316652
0.08905151
-0.01781407
-0.23255345
0.18926522
0.03213841
0.02126257
-0.23797704
0.01923128
0.10249003
-0.08198179
0.12687595
-0.05904158
0.10007435
-0.04601640
0.22075452
0.04771934
0.04377803
-0.02032005
-0.16936639
-0.36860016
0.13460265
0.00385681
0.03360776
-0.26863134
0.13354854
0.15025514
-0.17580062
-0.44499895
0.19375366
0.08551431
0.01577364
-0.13237415
0.31885913
-0.07314237
-0.12812014
-0.27457514
0.00634237
-0.38427031
0.08974475
-0.08491842
-0.10392506
-0.09385352
0.22598785
-0.20903137
-0.23690087
0.17283858
-0.65690833
-0.28032681
-0.02886689
0.00009532
0.06853135
-0.37942824
-0.12507288
0.09268519
-0.33558679
-0.31748921
0.18679601
-0.23368619
0.05879302
-0.04855270
-0.06309821
0.11699217
0.03230731
0.09833245
0.04427662
-0.23186526
0.14926776
-0.12962382
-0.08089043
-0.12204663
-0.11699470
-0.35879418
0.22518595
-0.34341148
0.09564435
0.11707877
-0.16233197
0.10060584
-0.26482260
0.39211607
-0.08320869
-0.18982220
0.07781211
-0.02149656
0.00901819
-0.09606538
-0.14100307
-0.08636054
0.14067386
-0.02660272
-0.03559025
-0.10604195
0.07958660
-0.25176921
-0.27600089
0.17285621
0.20747739
-0.29873130
-0.18759218
-0.13577265
-0.16774225
-0.37313801
0.15823054
-0.07500158
-0.55476087
-0.13542674
-0.19026862
-0.31481487
-0.11741412
0.11732746
-0.16463053
0.08924557
0.00290543
-0.01070237
-0.35752320
0.05007297
-0.28546971
-0.12385111
-0.00533949
-0.01864487
-0.03311067
0.03342002
0.03228586
0.11010005
-0.32936907
-0.02170972
0.00657037
-0.04886048
0.05741084
-0.04660564
-0.20898424
-0.13828747
0.02131331
-0.14068374
-0.37307754
-0.13480695
0.12173603
-0.21490647
-0.18039075
0.04659007
0.19799717
-0.01982346
-0.01671480
0.10925982
0.17954601
-0.02117850
0.01953381
-0.02394078
-0.30953637
-0.11222538
-0.09405852
-0.41280308
0.23537131
-0.10446646
-0.08210225
-0.17562295
0.12208361
-0.07417744
-0.11656435
0.18243994
-0.10820150
-0.30478981
0.18498448
-0.28153369
-0.22286689
-0.30017990
-0.15732081
-0.21457656
0.11474182
0.06522331
-0.29235354
-0.20677340
-0.11686522
0.02976632
-0.12277037
0.17787401
0.13590074
-0.09620566
-0.23122357
-0.07609842
-0.28068987
-0.44751549
0.03530472
0.10372719
-0.06985982
0.01461419
-0.33680722
0.02903250
-0.19881213
0.18933791
-0.38786975
-0.38203767
-0.05370329
-0.04466078
-0.40692386
-0.17518106
-0.31865272
0.21750864
0.26072967
0.00864828
0.03026529
-0.00326228
0.10705686
-0.05002778
0.04910185
-0.15826349
-0.00313777
0.01112754
0.09606029
0.01299518
-0.13345118
-0.29207760
-0.22092196
-0.13950522
-0.28136837
-0.36567479
0.15611577
-0.28610244
-0.07761971
-0.12121728
-0.05610162
-0.04470926
-0.50535184
0.11508679
-0.02609601
-0.45545906
0.02569675
-0.24411303
0.09474058
-0.14768797
0.03751669
-0.21637428
0.09980111
0.14682873
0.20133147
-0.23271237
0.03349556
-0.06502138
0.06007417
0.00780141
0.12006003
-0.05458574
-0.07300097
-0.52989727
-0.49387202
0.17158812
-0.12748270
-0.18974191
0.21191582
0.03614121
0.06886134
-0.16296276
-0.25741050
-0.02072631
-0.07991569
0.02754511
0.12444600
-0.02345072
0.05971523
0.25139990
-0.31440273
-0.34395579
-0.31282198
-0.25211722
0.08331387
-0.15237571
0.10961177
0.02476308
0.17533873
0.04903618
-0.31437287
-0.03110836
0.01405543
-0.32999241
-0.01708463
-0.31689444
-0.02757853
0.04566292
-0.22655477
-0.42010567
-0.03760007
0.02985562
-0.12565559
-0.04247967
0.10621785
-0.00598381
0.01736829
0.17528093
0.01704657
-0.37868872
-0.09541611
-0.54529268
-0.15722224
-0.39862680
0.13063774
-0.14378496
0.11083931
-0.21755797
-0.14566816
-0.13111019
-0.17151549
0.01354999
-0.23873539
0.15984173
0.09120705
-0.05319390
-0.27156818
0.08967225
-0.08724453
-0.28949168
0.09012002
0.11896951
-0.08902705
0.01082295
-0.10817100
0.06235468
-0.19547474
-0.00807591
-0.49503845
-0.05782196
0.00916982
0.08931705
-0.22213604
-0.18862687
-0.14283036
0.27009270
0.07755349
0.21997191
-0.08693210
-0.05331315
-0.00726593
-0.01178960
0.18532240
0.07938910
0.24626386
0.11505444
0.11102474
0.00425214
-0.06801864
-0.04205475
-0.05792095
-0.14122719
0.14478405
-0.09642541
0.24132253
-0.38280508
-0.01012401
-0.03695195
-0.41365370
-0.03911254
-0.24870171
-0.44139099
-0.08173676
-0.61472476
0.06495051
-0.06923747
-0.08833131
-0.16527127
-0.06671059
-0.23940620
0.23380846
0.03169659
-0.13933894
-0.33606997
0.12218443
-0.05225864
0.07136559
-0.19085293
-0.36783350
-0.08584553
-0.28691357
-0.24026588
-0.20658049
-0.24846731
-0.24105351
-0.26025060
0.10615787
-0.38889536
0.19662711
-0.17738762
-0.06452908
0.00651893
-0.44766358
-0.31148633
-0.29442766
-0.10238584
-0.25811183
0.05821048
-0.10971158
-0.22016370
-0.20247646
-0.39219612
-0.02985203
-0.15530433
0.12034860
-0.58068353
-0.22640592
-0.21698447
-0.05273413
-0.02987588
-0.29310036
-0.18255346
-0.13825445
-0.60089689
-0.30743220
-0.05749840
-0.24569125
-0.05438303
0.01562075
-0.46062621
-0.47551158
0.09208401
-0.39151186
-0.01657719
-0.24703312
-0.19563855
-0.07726748
-0.51661974
0.10218677
-0.09608500
-0.07000337
-0.20704690
-0.12572308
-0.28895071
0.16998160
0.12050801
0.08259539
0.00907233
-0.07107150
-0.08486600
0.10792437
0.14565575
-0.42654279
-0.07246345
-0.38222888
-0.27198386
-0.20505506
0.00731218
-0.20200115
-0.41526407
0.13602963
-0.11008763
0.29172426
-0.17611569
-0.50278336
0.08527262
-0.11338719
-0.02341041
-0.46662530
-0.19233350
0.09501936
0.15257600
-0.35283756
-0.03969345
-0.04298092
-0.37994668
-0.05495022
-0.37202904
0.12304406
-0.61116815
-0.19122532
0.08750175
-0.07133985
0.00436203
-0.18927522
-0.26840541
-0.00203188
-0.20899667
-0.05767995
-0.06180269
-0.27320808
-0.13729835
0.02042392
-0.01449517
-0.24323790
-0.33952862
0.21542835
0.05326430
-0.29963776
-0.16013563
0.07305547
-0.34759268
-0.12691981
-0.31958491
-0.02735521
-0.17479919
0.00396351
-0.05110973
0.01243265
-0.03250557
0.19754840
-0.23952259
0.14364247
0.28514290
-0.18144439
0.11124066
0.09758398
-0.17977788
-0.12001006
-0.56686467
-0.35143167
0.14511226
-0.25209746
-0.03155259
0.23784304
-0.12845257
-0.04336239
-0.13585038
-0.39864308
0.26920700
0.02516366
0.10712271
0.13097179
-0.06908648
0.12168454
0.22865868
-0.24992183
-0.38640693
-0.16364671
-0.17973115
0.19154468
-0.20753387
0.09767055
0.02574607
0.12922692
0.11820530
-0.12878621
0.08933109
-0.06966792
-0.40992293
-0.06713977
-0.21371660
-0.03302690
0.13452812
-0.35384226
-0.27870104
-0.13796473
0.06566821
-0.20296890
-0.16343240
0.01270964
-0.07239508
0.19881707
-0.00745380
-0.04639029
0.02461960
-0.30734804
-0.05826293
0.02735731
-0.13219930
-0.19186687
0.11453660
0.05582587
-0.50677001
-0.31251460
0.17914371
0.07812394
-0.07176978
-0.05074427
0.01683576
-0.26885644
0.16476689
0.06353080
-0.40593722
-0.00403668
0.09044901
-0.29128730
-0.01583270
0.03177765
-0.19357979
-0.17235276
0.10715555
-0.25448805
-0.31143174
0.17723776
0.15546198
0.07539473
-0.07485475
0.09001461
-0.44334325
-0.08093575
-0.02499441
0.20989892
-0.28266442
-0.13238077
-0.30186585
-0.08570693
0.20353641
-0.36140436
-0.09677014
0.02478969
0.00935920
-0.17974918
-0.23801230
-0.02586943
0.07809236
-0.25778821
0.07319103
-0.15662038
0.03501011
0.13900286
-0.31354934
-0.15686220
-0.29628336
0.11904239
-0.21349809
-0.01452147
0.13746007
0.07378621
-0.76937628
0.26256689
-0.63677943
-0.15845932
-0.25677723
0.10553287
-0.27585110
-0.22600923
0.29279858
0.14939931
-0.29812378
-0.01361637
-0.09192541
-0.19168505
0.03264417
0.07369530
0.08612312
-0.26900241
0.03812406
-0.40867490
0.13140991
-0.17261347
-0.08088969
0.03450583
0.29195035
0.19334047
-0.01386206
-0.25184572
-0.11428032
-0.14408948
0.06762180
0.08026228
0.09422491
-0.23468320
0.00285902
-0.52754790
-0.47828332
-0.28552067
-0.26039967
-0.01890208
0.09983588
0.01207462
0.13702668
0.35379440
-0.02831980
-0.30109239
-0.05729169
0.21293443
-0.10389671
-0.08040295
-0.34910524
0.17416605
-0.05391953
0.04581635
-0.39108643
0.06858819
0.03578051
-0.43453327
0.06569739
0.02729722
-0.39118990
-0.09375340
0.07953551
0.11493946
0.00623098
0.03141662
-0.26308730
-0.18881419
0.00817867
-0.09877025
-0.17734534
-0.17362130
-0.31743288
-0.04798372
0.17673285
-0.08101621
0.13493516
-0.08181823
0.01803680
0.06823994
0.06706937
0.05185844
0.01470081
0.06919118
-0.35025278
-0.01656424
0.23599832
-0.18885247
0.05426608
-0.27008048
0.14827645
-0.12703784
0.03037846
0.00217093
-0.17211415
-0.34822139
-0.10667362
-0.58555961
-0.14296393
-0.04920870
-0.07900051
-0.16606516
0.17513429
0.19153598
0.00235336
0.00353336
-0.07309428
-0.10573582
-0.13632569
0.31670627
0.01230020
-0.09560028
0.04152011
-0.01533227
-0.07567651
0.05277075
-0.23356362
-0.03218964
0.20633014
-0.01218315
-0.13977641
0.06179287
0.06830043
0.00261793
-0.03121028
0.01254751
-0.07379639
0.04823835
0.07593095
-0.05823834
0.01005752
0.01066951
-0.05416967
0.04707577
-0.08178025
0.00374310
0.04056885
0.00688600
0.02120414
-0.05025210
-0.06212551
-0.01062290
-0.03882456
-0.01035641
0.05330790
-0.05888951
-0.02926861
0.02627027
-0.06588822
0.00162210
-0.00367492
0.03380611
0.06129818
-0.07743672
-0.06930330
0.02872094
-0.06034754
-0.02648832
-0.02369851
0.00640775
0.08812623
-0.06712516
-0.03999125
0.01462355
-0.06551220
-0.00414412
0.03702642
0.01651651
0.01329642
-0.00826634
-0.00178143
0.06057708
0.04560399
-0.06319732
0.00147952
-0.00035769
-0.04419889
-0.02297366
0.06862941
0.03087589
-0.07439321
-0.01726188
-0.04560214
0.00012963
0.00829747
-0.05697342
-0.36278978
0.01685413
-0.15491529
-0.02637351
-0.18850791
0.00916977
0.04440394
-0.10892478
-0.20340773
0.01153248
-0.29933497
0.00552626
0.04094889
-0.12322427
-0.30247533
-0.04806608
0.07284132
0.10588137
-0.00092346
-0.28788921
-0.05949245
-0.03307729
-0.06759205
-0.01176803
-0.14289542
-0.06933317
0.17953224
-0.30425113
-0.07095494
-0.26685461
-0.07189686
0.10568517
0.08502765
-0.48928717
-0.02052981
0.19763881
0.03920068
0.12728569
-0.04528805
0.06339197
-0.27829203
-0.13107829
-0.07160595
-0.00525706
-0.33302683
0.02913092
-0.26484045
-0.07622711
0.13628399
-0.02371093
-0.09276745
-0.26675215
0.09811265
-0.16452031
-0.16863881
0.01565984
-0.19566767
-0.25147241
0.04798589
0.00712136
-0.17896633
0.07710269
-0.20845942
-0.24544497
0.20645735
-0.04258873
-0.03271187
-0.07821542
0.09838270
0.02360171
-0.13598050
-0.04668457
-0.22430021
-0.09775895
-0.16336553
-0.05289493
-0.28892666
0.03027530
0.13114494
-0.10825244
0.07906726
-0.19780998
0.04593161
-0.04077359
0.08202867
0.13684799
0.03362578
-0.13534474
0.13272534
0.00346789
0.00260557
0.10846840
0.14815769
-0.10969373
0.02433441
-0.07589561
0.12205895
-0.33760980
-0.06844950
0.01308861
-0.07534534
0.01405466
0.00790562
-0.13927360
-0.08585217
-0.06080392
0.24830236
-0.02406164
0.24283302
0.00214730
0.08910426
0.11437181
-0.08858765
0.04564929
-0.02459310
0.16736647
0.04666917
0.06987859
-0.00695661
-0.09276629
-0.11656993
-0.10764528
-0.06668621
0.10234354
-0.28904149
0.01480134
-0.04553648
-0.30506966
0.08910003
0.15705666
-0.13161893
-0.47735351
0.07386029
0.01803355
-0.11854880
0.05844811
-0.23919700
-0.12081790
-0.18947145
-0.08663889
-0.25727352
-0.20883918
0.04039251
0.02337938
-0.14045233
-0.10325556
0.04336094
-0.16198100
0.00334770
-0.05531395
-0.04382400
-0.10303418
-0.07149786
-0.07915782
-0.07661216
-0.01247878
0.04211964
0.11402584
0.05938438
-0.06500414
0.04704350
-0.32858205
0.00930759
-0.14420183
-0.11428021
-0.00996186
0.04206766
-0.24503723
-0.08711761
-0.06746184
0.15706041
-0.15905228
0.27121279
0.13401471
-0.09170717
0.11186666
-0.02799924
0.06143137
0.11247843
0.14296685
0.07219920
0.14106351
0.12993264
0.01264628
-0.06520823
0.00306646
0.00112703
-0.04503702
-0.13689157
0.07352687
-0.13316694
-0.07305927
-0.09719200
-0.25371200
0.11471701
0.18787368
0.00865307
-0.17723976
-0.15888542
-0.38412774
-0.02538493
-0.36392382
0.06006406
-0.10496410
-0.04120532
0.16861711
-0.29441199
-0.07116298
0.23863021
-0.08434404
-0.17596783
0.04331221
0.05255680
-0.20175134
0.01490717
-0.26733336
0.11588537
0.12171952
-0.12549660
-0.14162514
0.17497049
0.04844483
0.00404462
-0.39576110
0.13371961
-0.05001863
-0.58613169
-0.20802578
-0.07368655
-0.62779701
0.27768129
-0.15099706
-0.01809083
-0.07096128
-0.00655188
0.33425814
0.05604738
-0.40933535
-0.43409097
-0.25702643
-0.59629762
-0.07565920
-0.29111123
0.04992666
-0.39569464
-0.23685676
0.04882909
-0.13219351
-0.23805693
0.10483377
-0.19733834
0.09176832
-0.26455966
0.18883264
-0.26236096
0.06347939
-0.06441669
0.13478823
-0.08783925
-0.27314627
0.23807010
0.01577920
-0.38008898
-0.15190765
-0.09498560
-0.34524477
-0.54944003
0.11993089
-0.37529483
-0.19024648
-0.12860578
-0.23565850
-0.26419601
-0.17945014
0.08201891
-0.18709353
0.11772288
-0.01584095
-0.09136322
-0.43968648
0.10063755
-0.34921193
-0.33021474
0.12023664
-0.03963273
0.03073456
-0.00457557
-0.17156842
0.13778041
-0.36384499
0.02720892
-0.16161130
-0.06089323
0.12095680
-0.12540813
-0.27563870
-0.15450761
0.03413497
0.09104935
-0.19720341
-0.05028667
-0.05570085
-0.14555079
-0.02240445
0.01594095
0.24072443
0.02624402
0.08669320
0.14190820
0.21376500
0.02639047
-0.07579739
-0.07249846
-0.33636332
-0.02853218
-0.19870596
-0.44382316
0.28651735
-0.39238191
-0.11197580
-0.39704517
-0.34085321
-0.08714550
0.15035671
-0.39334196
0.06909099
0.02205951
-0.29411292
-0.16345856
-0.06664042
-0.05811553
-0.27496591
0.03650670
-0.25560635
-0.37810379
-0.32939348
0.16164754
0.20537953
-0.25064105
-0.10681330
-0.03012038
-0.17399380
0.10347261
0.13075402
-0.03651563
0.09396926
-0.02150180
-0.30201864
0.01242574
-0.29238224
-0.42188460
-0.18752402
0.03167296
0.13914220
-0.45828182
0.08549333
0.00048202
-0.00771038
0.03421760
-0.03610485
-0.27747554
0.04130014
-0.07646055
0.16770929
-0.17706995
-0.31788075
-0.52939165
-0.13957264
0.20439251
-0.59231508
-0.34162131
-0.29213125
0.11706670
-0.40450078
-0.08190846
-0.15508850
0.05165229
-0.14618891
-0.09860071
0.08792164
0.06808698
0.03732286
-0.23117338
-0.11013193
0.19484007
0.01200227
-0.10306635
-0.23068169
0.19096394
0.07034825
-0.16914251
-0.02209579
-0.16952994
-0.31176263
-0.22104165
0.06268878
-0.38717830
-0.12978067
-0.08144349
-0.04400770
0.07196165
-0.35748729
0.09112526
-0.12033886
-0.10833008
0.07489701
0.09766609
-0.11964747
-0.02260890
0.10642304
-0.40838760
0.09338524
0.15440880
-0.23608421
0.04921269
-0.12673357
-0.00175943
-0.30379054
-0.13024034
-0.39231297
-0.04599870
-0.11705507
-0.09973342
-0.25876239
0.08224732
-0.12868890
0.04097542
-0.34894052
0.20827086
0.16312452
0.02255834
0.16302006
-0.11564957
-0.08305814
-0.10054524
0.26274735
0.01947153
-0.06218235
0.08906859
-0.08887372
-0.23774831
0.00365821
-0.12497481
0.08672567
-0.08975303
0.09483697
-0.15083304
-0.07275333
-0.06793706
0.06125881
-0.06397129
-0.28009072
-0.16508804
-0.00994776
-0.28864595
-0.01168328
0.14145066
-0.39278424
-0.17172541
0.10146039
-0.18678358
0.07852833
0.11314172
-0.30293590
-0.19258016
-0.30012432
0.10387426
-0.06751806
0.11342929
-0.10527851
0.04607224
-0.30310181
-0.12947950
-0.31478518
-0.26713461
-0.47673461
-0.16858223
-0.01936217
-0.15334398
-0.22293361
-0.01816956
-0.09027334
0.04461040
-0.44505015
-0.25685573
-0.04015523
-0.20753027
-0.23589116
0.10109617
-0.03353625
-0.13189560
-0.35410619
-0.46858728
-0.00477316
-0.11286139
0.04603487
-0.12211148
0.03108734
-0.46984842
0.01254715
0.11362773
0.04037188
-0.08265087
-0.12349674
-0.30137548
-0.43716723
-0.07191465
-0.41958579
-0.19533528
-0.09499026
-0.25457877
-0.30647781
0.08423435
0.11426010
-0.09519840
-0.18315770
-0.14204785
0.14323181
-0.14391533
-0.08068646
-0.02809644
-0.13095625
-0.11214001
-0.04717363
0.01616658
-0.07591836
-0.00168423
-0.18406302
-0.22298819
-0.48869798
0.14335528
0.00941819
-0.14810151
-0.21486136
0.00698872
-0.01935104
0.00378979
-0.11407483
-0.04896919
-0.27224180
-0.20441595
-0.04611613
-0.05722272
-0.33700448
0.01867845
-0.14733949
0.11798331
0.06793009
-0.04289597
-0.00036550
-0.23924975
-0.28244308
0.06288005
0.11694469
-0.34709331
-0.17438653
-0.22905469
0.10654517
-0.16361885
-0.03186818
-0.33798775
0.04739070
-0.45405003
-0.03060220
0.11616497
0.05639869
-0.03094013
-0.02529702
-0.07150644
-0.37425101
-0.03337222
-0.15913770
-0.17224185
-0.23324737
-0.21513975
-0.04000286
0.06913297
0.10551167
-0.05361132
-0.04646841
-0.06881342
0.02166325
0.09203503
-0.05677643
-0.08069982
0.00037341
-0.13511062
-0.07674897
-0.08364003
-0.11946779
0.02217246
0.02328333
-0.02256511
-0.08007860
-0.05737672
-0.10883294
-0.02661328
0.01614503
0.08384402
-0.05468644
-0.00413068
-0.04876636
0.04188712
0.10599189
-0.09594094
-0.08652674
-0.02211215
-0.02339275
0.00255135
-0.00876234
0.06298544
-0.10019916
0.08292743
-0.00252436
0.06303517
0.02416949
-0.06995482
-0.01403391
-0.01174725
-0.01390716
0.04877254
0.14593937
0.12531970
0.06254792
0.03736902
0.05688170
0.03038854
0.00906721
0.09976056
0.04445950
-0.09292948
0.05392582
-0.09255642
0.08203563
-0.06797675
0.02379368
-0.08530535
-0.03684302
-0.05724466
-0.12931675
0.06666145
0.03573439
0.02258227
-0.20737661
-0.33036244
-0.11974667
-0.08233153
0.02387010
-0.00030067
0.12105533
-0.21280079
-0.22383657
0.13828737
0.03479854
-0.05346316
-0.09094845
-0.04241227
-0.15539749
-0.28152442
-0.02996451
-0.03905757
-0.10744783
-0.01395842
-0.05497069
-0.35915774
-0.21790591
-0.09884551
-0.18009619
-0.15627657
-0.08968920
0.00121252
-0.01761320
-0.14238073
0.03087359
0.04362182
-0.10465313
-0.10692099
-0.25590271
-0.16420873
0.01600677
0.05054058
0.19411401
-0.03939915
-0.19501135
0.04601920
-0.21148483
-0.13319971
-0.01535017
0.05113950
-0.42500794
0.12045100
-0.07185648
0.10511027
0.01440030
-0.18453529
-0.01128207
0.03236947
-0.13978209
-0.01355028
0.02521336
0.03811491
-0.35783970
0.05578080
-0.02525583
-0.07411838
-0.04428145
0.07671620
-0.66272610
-0.10605107
0.01651083
-0.45650488
0.11644438
-0.22971345
0.05741698
-0.24001148
0.09686792
-0.25167137
0.11913525
0.00528253
0.12075216
-0.40174541
0.19843011
-0.07329507
0.07710865
0.04054414
0.09928273
-0.02068832
-0.19853958
-0.50063485
-0.53207195
0.07857247
-0.27927932
-0.06621677
0.25670993
-0.10670288
0.32852119
-0.32885727
-0.38820082
0.05138673
-0.04799856
0.09458710
0.04555129
-0.09726352
0.05619399
0.21188335
-0.47063920
-0.00817276
-0.24794872
-0.26622236
0.13776679
-0.12012441
0.16045922
-0.03412142
-0.21707909
0.14651467
-0.19370389
-0.05623912
0.04285151
-0.18939899
0.01918066
-0.23840673
-0.07391611
0.00892039
-0.34550837
-0.10177626
0.06112298
-0.01658838
-0.08637129
0.23752524
0.11637303
-0.16069247
-0.17682286
-0.08354197
0.04577535
-0.11345804
-0.19602878
-0.10319404
-0.07457218
-0.09933420
-0.03968745
-0.18443915
0.04260024
-0.13243425
-0.08899500
0.06044050
-0.15360297
0.12966527
0.12392291
0.18830676
-0.09400197
0.01665170
-0.12965925
0.09369366
0.07423379
-0.20506318
0.18330713
0.00685821
-0.02152343
-0.07570794
-0.06004021
0.00204689
-0.17318352
0.03803529
-0.06201058
-0.01312145
-0.08289624
0.02313409
-0.24293408
0.17590554
0.09456793
0.02935920
-0.29463321
0.19205004
0.04115122
0.07373530
0.15428063
0.01246796
0.04147684
-0.05859039
0.04170765
0.15136543
0.08777841
0.03035727
-0.03651784
-0.15838473
0.00846023
-0.11502697
0.07682627
-0.05965044
0.10740253
0.17892028
-0.21494168
-0.23135291
-0.14642541
-0.05083676
-0.31607792
-0.08737553
-0.02950522
-0.28341150
-0.19752415
-0.06996702
0.05138774
-0.13760188
-0.11040915
-0.31233779
0.04748049
0.13243616
0.10627251
-0.25603268
-0.22541477
0.03093690
-0.31420162
-0.13200413
-0.28199688
0.12326946
0.10455065
-0.30469084
-0.53830045
0.05920124
-0.05682322
-0.29730242
0.03272816
0.01863720
-0.02692306
-0.02251854
0.09294686
0.12902737
0.01964182
0.10648392
-0.02456340
-0.04225482
0.10599417
0.13524897
-0.06489757
-0.62991065
-0.26845396
0.10381110
0.04866801
-0.10118765
-0.09084894
-0.04356219
-0.10635474
0.07360030
-0.56437379
-0.02670969
-0.13575603
-0.36282340
0.00651680
0.12626393
0.14623655
-0.10410701
-0.04548964
-0.11773758
-0.55973601
0.17519648
0.01389634
-0.06506524
-0.15193933
-0.08800745
-0.14836007
-0.18785386
0.00977505
-0.50524831
0.08667490
-0.11447853
-0.06174883
-0.14108850
0.05561649
-0.13404262
0.10844512
0.14355110
-0.34810841
-0.20089099
0.05008576
-0.06814005
0.05265646
0.04697048
-0.08441327
-0.01102252
-0.36070019
-0.17715864
-0.15160744
-0.24267656
-0.27117029
-0.14598154
0.13180465
-0.32515281
0.11703198
-0.02433153
-0.38667646
0.11487571
-0.47753125
-0.28891718
-0.09946253
-0.13853937
-0.13008286
0.00031660
-0.13026869
-0.02722764
-0.30451778
-0.38299206
0.06194855
0.05505120
0.16882594
-0.19064814
-0.19417678
-0.06739517
-0.07790417
-0.05045500
-0.06653638
-0.10306363
-0.00074822
-0.36426458
-0.12916811
-0.01529431
-0.31833455
0.14466055
-0.09501701
-0.15510541
-0.33500642
-0.05811501
-0.10754034
-0.22239950
-0.01741160
-0.06592393
-0.04984068
0.03129356
0.07089905
-0.31576568
0.05123790
-0.06185015
0.09896189
0.03698613
-0.26156718
0.31075644
0.01042659
-0.20474264
0.36634982
0.06960534
-0.06315604
0.02240073
-0.06664449
-0.02638043
-0.25179935
-0.02672223
0.00934783
0.06712146
-0.00354600
-0.05359914
0.01833547
-0.04948746
0.13668719
0.02349097
-0.04843835
0.18068510
0.05650988
-0.02212435
0.02136562
-0.15407023
-0.04209663
0.01751953
-0.12462192
-0.03926571
-0.22830488
0.00710827
-0.02801254
-0.15905754
-0.17137061
-0.03073032
0.32478631
0.08190626
-0.03068733
-0.00847611
-0.14552000
-0.19571748
-0.06629550
-0.16484965
-0.01721074
-0.09031389
0.04697166
-0.25068292
-0.15059263
0.06002124
-0.17114803
-0.00077013
0.05803346
-0.20255563
0.07516858
0.08222290
0.18285859
-0.18911040
0.05751878
-0.34984747
-0.22771889
-0.37697130
-0.05367276
-0.25282913
-0.57030886
-0.10421811
-0.02768635
0.00485711
-0.30059677
0.35347104
-0.46273452
-0.10195653
0.02859913
0.07075462
-0.01955875
0.08555976
0.01625543
-0.31693968
-0.06876860
0.10199694
-0.00304214
0.09747151
-0.23327406
0.09192479
-0.27174971
0.07044233
-0.30943599
0.06612979
-0.17221783
-0.04222197
-0.60173267
0.12984468
-0.05679928
-0.03622581
-0.43412501
0.10625135
0.24320655
0.10890980
0.14302820
-0.22082099
-0.01998816
-0.18592505
0.35508430
0.00710992
-0.08698710
-0.01018560
0.04618676
-0.12212925
0.10932811
-0.08236736
0.16341586
0.11447457
-0.08266275
-0.00765269
-0.07702974
-0.05844110
-0.03824080
-0.26884755
0.02690587
0.16573304
-0.04777385
0.07420179
-0.07521065
-0.27751657
-0.19877872
-0.16188905
-0.16722748
-0.28438810
-0.09420567
0.07481677
-0.16398889
0.11035515
-0.29182318
0.00186615
-0.22901943
-0.06077453
0.04090953
0.06947533
-0.07138645
0.14325605
0.09263344
-0.22466478
-0.00343709
0.19583237
-0.17733580
-0.02787490
-0.21092473
0.13587201
0.06686989
-0.07448608
0.01929465
-0.41660735
-0.15824972
-0.03117087
-0.41320726
-0.46151704
-0.13928229
0.10575553
0.10051101
-0.05004840
0.06545280
0.06783655
-0.00779893
0.01057594
-0.10426970
-0.11776020
0.12443693
-0.06095252
-0.09280335
0.04342707
-0.06167608
0.06534002
0.00960343
-0.21586058
0.08928502
-0.08454153
-0.00485597
-0.32108656
-0.06942470
0.09369162
-0.15784451
-0.08007793
-0.02181832
0.20676687
-0.22512904
0.17273766
-0.20928189
-0.11576162
0.01622334
-0.40114591
-0.22404057
-0.15927416
-0.11663441
-0.02955068
-0.05242562
-0.13002825
0.03891212
0.00278938
-0.24756473
-0.31229436
-0.07536941
0.00216220
0.07297961
-0.26615182
0.01051938
-0.12421930
0.05584551
0.12963231
0.08265307
0.06737826
0.27830645
-0.31808293
0.00404204
-0.06070578
-0.21273348
0.16933857
-0.37799993
-0.08740741
0.17474025
-0.09849736
0.18311821
0.35428190
-0.11094242
-0.16529898
0.16267528
-0.05523164
-0.24817395
-0.21934988
-0.06033894
0.13854989
0.33551553
0.01744832
0.18689987
-0.15367919
0.05392600
0.11468469
-0.20046656
0.08166960
-0.19185635
-0.11201232
0.10746962
-0.25463423
-0.00400717
0.00975346
-0.06704105
-0.03935941
-0.25206620
-0.23154873
-0.07070988
-0.29596576
-0.04901134
-0.12106685
-0.03792648
-0.00423837
0.10395096
-0.09815680
0.01515936
0.04773729
0.07462026
-0.26618829
0.09940888
-0.02433382
0.03660235
0.00812495
-0.10008559
-0.02455449
-0.25901133
-0.30719662
-0.20855564
-0.03390636
-0.04123088
-0.08530244
0.19005381
-0.03728011
0.19658156
0.07287537
-0.29353788
0.08444389
-0.14034705
-0.11911768
0.10153110
0.01734875
-0.00043731
0.24213263
-0.07484867
-0.20475358
-0.26990628
-0.19238432
0.04759567
-0.00955503
0.07331295
0.06145725
-0.00699265
0.07199730
-0.30891785
-0.00502701
-0.19283228
-0.13236995
-0.03896695
-0.26424465
0.07466013
-0.18837692
-0.19065306
-0.21607220
-0.37753549
0.04795859
-0.22825097
-0.46390581
0.01860322
0.11282032
-0.01393231
-0.04629206
-0.08003085
0.06140591
-0.05048844
-0.24083398
-0.10465904
-0.26192918
-0.08716299
0.04663898
0.17409152
-0.28921574
-0.39662310
0.05409295
-0.11707743
-0.38875896
-0.31776989
-0.17631269
0.20815299
0.06239533
0.06287953
0.22343890
-0.03196961
0.05748055
0.15104118
-0.06379513
-0.02689333
0.13745332
-0.16682822
-0.27097496
0.09071799
-0.24015610
0.14045440
0.16200370
-0.12401617
-0.02787321
-0.03450835
-0.20616502
0.01956982
0.17873973
0.19815055
-0.24944806
-0.00450251
-0.27975261
-0.07429194
0.14066237
0.07228450
0.05348052
0.27790916
0.13007817
0.02337826
-0.23143168
-0.12086386
0.06777763
-0.28972310
-0.06535648
0.02117195
0.06829688
0.02758143
-0.21626054
0.03445006
-0.00633059
0.19696486
-0.19667925
-0.10259581
-0.41358182
0.12777945
-0.21173586
-0.10616181
-0.12071377
-0.14784248
-0.12822524
0.17226325
-0.18197821
-0.09566002
-0.38091993
0.16081953
-0.23781319
0.13385268
0.31011152
-0.13526557
0.05850372
0.08754163
0.07431379
0.04708465
0.00264413
-0.18957876
-0.09014355
0.13722415
-0.08396164
0.11653791
-0.19254708
0.24411282
0.07875109
-0.21199636
0.27199686
-0.28853151
-0.17509162
0.06656376
-0.06401185
0.09456848
-0.14633255
-0.13070492
-0.24733198
-0.16866814
-0.43579650
0.15062036
-0.14813845
-0.12986510
0.00719203
0.26753780
0.26881012
-0.09014648
0.18361010
0.20804299
-0.02075320
-0.06045729
-0.05311594
-0.04273579
-0.10232916
-0.13977328
-0.16581336
-0.29315135
-0.09125411
-0.37653127
-0.47673523
0.10463382
-0.13728078
-0.11483172
-0.14036649
0.16210988
-0.13273348
-0.10456982
-0.37363982
-0.06457156
-0.09859218
0.08753386
0.05348969
0.07422853
-0.13202237
-0.18584511
-0.26633623
0.20614852
0.00255370
-0.12090392
0.05086662
-0.16427587
0.03426779
-0.32872561
0.04185509
0.02152797
-0.13924950
0.20006408
-0.12831244
-0.07434366
-0.18912847
0.18285237
0.18594305
-0.24259543
-0.00679480
0.05153351
-0.09476445
0.11804582
0.10891328
0.08831500
-0.24742241
0.02036153
-0.33610925
0.00243903
-0.17763552
0.28380373
0.09266269
-0.14963803
0.19756249
0.09456833
-0.04441461
-0.32819802
-0.00322819
-0.08013191
0.04329800
-0.09238387
-0.25004232
-0.00514324
-0.27011991
0.02167372
-0.03173145
-0.00314649
-0.19309148
-0.07346989
0.12625405
0.09433838
0.12903254
-0.36082163
-0.06277283
0.07929653
-0.15967876
0.00656530
-0.28278151
0.15398757
-0.15985513
-0.03984411
-0.04314144
0.19863033
0.06008188
-0.04841300
-0.39654201
-0.02461136
-0.37317267
-0.04615133
-0.30012611
-0.33717632
0.06159464
-0.11030768
-0.46059349
-0.27149788
0.05748229
-0.35351720
-0.41770899
0.10336406
-0.11093780
-0.05802502
-0.44204113
-0.08635961
-0.04228428
-0.06847104
0.06424405
0.01425768
0.10523020
0.10774597
0.15737693
-0.26933837
0.04791160
-0.16841863
-0.42480522
0.12630899
-0.05617081
-0.05062199
0.13906206
0.02334069
0.04731991
-0.03423406
0.10794155
0.29520410
-0.52418733
-0.02449993
0.03003208
-0.22993524
0.10782657
-0.17994280
-0.30015770
0.01088425
-0.04829593
-0.03320552
-0.28838262
0.06900949
-0.55203968
-0.03783451
-0.17812203
0.09349351
-0.40779355
0.13235691
-0.50803035
-0.17244424
-0.08115210
0.10286542
-0.16546623
-0.07370644
-0.12154507
0.08768786
-0.11232203
0.03943048
0.15618069
-0.33066508
-0.04839898
0.03070143
-0.02304315
-0.19731277
0.01083965
0.08184665
-0.08088090
0.15912162
-0.00320433
-0.27940142
-0.08308230
0.22248441
0.07864264
-0.07985040
0.22142066
-0.02168459
-0.01227484
0.05380578
0.13484411
0.13542312
-0.28593987
-0.30982593
-0.23757495
-0.04511104
-0.02457968
0.11656984
-0.05272694
-0.25920671
-0.00958068
0.10018557
0.10808778
-0.45944741
0.08669136
-0.11656880
-0.00392169
0.06535050
-0.16173565
0.02194876
-0.06832950
0.05276786
-0.19345444
-0.20164894
-0.17731597
-0.15478109
-0.29570314
-0.06658835
0.06186930
-0.34611219
-0.42451486
-0.07744620
-0.52246702
-0.02567028
-0.11485700
0.03242797
-0.49023083
-0.08935432
-0.03384576
0.19640748
-0.12058675
-0.44684434
-0.33157650
0.12835345
-0.28078759
0.18798217
0.07104240
-0.11694296
-0.03217215
-0.34145615
-0.26409024
-0.26391548
-0.39769652
-0.30742285
-0.06430402
0.14847009
-0.05001640
-0.22589493
-0.33454174
-0.15019919
-0.06048852
-0.65182841
-0.33090183
-0.04589118
0.01757455
-0.24427748
-0.26392028
-0.12825339
-0.01088898
0.01981884
-0.26656449
0.04508132
-0.03025758
0.20886113
0.07105611
-0.11416506
-0.40302679
-0.20150992
0.03331416
-0.15737422
-0.14520797
-0.01935154
0.03333847
-0.33890343
-0.14957407
-0.47355995
0.00359462
0.09218530
-0.23169582
-0.05837758
0.01254062
-0.02706810
0.07433075
-0.56432533
-0.14007740
-0.13447934
-0.74183083
0.22031051
-0.50192547
-0.26262248
0.03957373
-0.08518745
-0.22370511
0.17643207
0.08743946
-0.17936747
-0.34331214
0.05908336
-0.28696984
0.20263886
0.13970670
-0.19187208
-0.08553512
-0.20434920
-0.59672886
-0.08674931
-0.01305902
-0.10658976
-0.17826162
0.13604352
-0.27468589
-0.18670902
-0.22885783
-0.29073590
-0.01187945
-0.13919288
-0.01267781
-0.04005294
-0.10674391
-0.16019793
0.07098544
-0.25307819
0.09523401
0.11115523
-0.05102242
0.00691089
-0.00325833
0.15000683
-0.10047209
-0.13648830
-0.16896389
-0.00664181
0.05464523
0.05716379
-0.27104130
-0.06020841
-0.10376288
-0.41003007
-0.08027416
-0.37482393
-0.33728671
-0.07006159
-0.32769892
-0.23219092
-0.17656542
0.21749902
0.11328536
0.00315462
-0.10974522
-0.02256312
0.01421817
-0.12292627
-0.10465749
0.07885377
-0.18474942
-0.14777045
-0.07455313
0.21371515
-0.23627798
-0.23959284
-0.24524990
-0.07457694
-0.27555138
-0.19781233
-0.28811097
-0.06887299
0.03039749
0.03510984
-0.19944784
-0.16780280
0.03662113
-0.16267216
-0.13568133
0.09617247
-0.13507511
-0.06444641
-0.25140372
-0.04922848
-0.03663775
-0.01397756
0.16158277
0.08285934
0.03158392
0.05722727
0.01595140
-0.11823255
0.07408538
-0.01547446
-0.47768715
0.26141196
-0.14837782
-0.19650564
0.20494230
-0.12081342
0.14224295
0.17396358
0.11139143
0.18150954
-0.20375803
0.06858903
0.05342001
-0.43065473
0.04480005
0.03068377
-0.05176792
0.00313755
-0.17656294
0.02733953
-0.20573913
-0.20719679
-0.12300781
0.05405520
-0.07671397
-0.22760613
0.17612633
-0.26218188
-0.03049143
0.01134184
-0.19169474
-0.24654013
0.10330214
-0.14108044
-0.58334899
-0.16121465
0.18091570
-0.26414129
-0.33689901
-0.11145284
-0.03848882
0.06987136
0.10298640
0.15161361
0.17695163
0.07327729
0.06155257
-0.03378915
-0.23452571
-0.24700564
-0.04136018
-0.31803033
-0.21637517
0.35355607
-0.22195597
0.25322014
0.01971604
-0.25953194
-0.37642965
-0.11762361
-0.30579171
0.17506486
-0.03837874
-0.13360962
0.05594601
-0.30992019
0.07178652
-0.06861123
0.07009663
-0.34633747
-0.43116197
0.26984987
0.30404592
-0.05824563
-0.29081953
-0.09863414
0.19213502
-0.14260836
-0.22614695
0.09770177
0.22563611
-0.00869413
-0.05693602
0.20402279
-0.21642230
0.14054492
-0.04963709
-0.08444337
-0.03942033
0.05885856
-0.11988932
-0.19077545
-0.43988347
0.16313615
-0.22336063
0.16370358
0.02160098
-0.07813545
-0.00350364
-0.01077948
-0.28521252
0.05177460
-0.12309997
-0.08511288
-0.13610217
0.04852354
0.06765418
-0.06232818
-0.18218927
-0.42402351
0.20274772
-0.20204349
-0.09117123
0.14798415
0.06664666
0.14954035
-0.24989823
-0.17363593
-0.23428836
0.23604469
0.14948206
0.23945418
0.16034685
0.32151753
-0.27805865
-0.16564696
-0.74355084
-0.09744550
-0.41083074
0.11911210
0.22834109
0.03088704
0.27519158
0.10525315
-0.00884099
-0.48305678
0.01638205
-0.06427497
-0.03418791
0.03903335
0.08530629
0.02280520
-0.06414228
-0.03616396
0.01881781
-0.18723391
0.10486090
-0.18736875
0.12577944
-0.17019376
-0.27681375
-0.01153930
-0.18547116
0.05016717
-0.10655291
0.16053839
-0.08905575
-0.39644742
-0.07057393
-0.17635895
-0.25684786
-0.23288706
-0.05957194
0.08527898
0.13837509
-0.14233468
0.06352981
0.04340861
-0.10179374
0.19088154
-0.16023755
0.13005969
0.19102284
0.01540113
0.06144972
-0.00408629
0.08457410
-0.34506300
0.04618805
-0.19840258
0.11980500
0.10270721
0.05616132
-0.04036270
-0.45764875
-0.45951524
-0.45167923
-0.29417607
-0.15382323
-0.16672687
-0.01162294
-0.53112161
0.07661771
-0.19295315
-0.06613535
0.07583678
-0.48016462
-0.16117036
0.07681058
-0.14356171
0.05094690
-0.25865975
0.07809635
-0.10367329
-0.01134560
0.04242547
-0.15094478
0.03057841
-0.03260997
-0.25347930
-0.13091096
-0.03525543
-0.01113272
-0.04097072
0.07147986
0.06225485
0.06727549
0.02322291
-0.04444742
-0.02395101
0.05398614
-0.03473552
-0.00876653
-0.06024320
0.02852796
0.07328086
-0.06680425
0.06478524
0.01113758
-0.06804469
-0.01609967
0.01209505
-0.02929628
-0.04877922
-0.01097932
-0.07395248
-0.00699470
0.03850475
-0.04997548
-0.03118046
0.00425221
0.07126470
0.07072308
-0.01256760
0.04093354
-0.01664073
0.06457011
0.02728274
0.01160876
0.04504585
0.01932003
0.07160102
0.02041437
-0.04391713
-0.05064463
0.01774900
-0.05631103
0.05602894
-0.05915884
0.00200504
0.04567653
0.04622548
-0.03890127
0.00588752
-0.00325416
-0.07686424
-0.01770461
-0.01597132
-0.03375033
0.04825645
-0.07457586
-0.00483046
0.06489869
0.00589281
0.04263256
0.04877910
-0.33891362
-0.15059365
0.00163869
0.06538545
-0.31036630
0.05265244
0.11994424
-0.26423913
-0.26279172
-0.09940072
-0.30983117
-0.32017252
0.02304626
-0.30745560
-0.57171178
-0.20243423
0.07427856
-0.27419755
0.01092803
-0.46828833
-0.16047715
-0.10995373
0.11202220
-0.08580568
-0.23033699
-0.01563242
0.05359103
-0.21570741
-0.26321411
-0.26763880
-0.02443695
-0.39740449
-0.19643040
0.13208367
-0.01878385
0.18927486
0.08855498
0.05266806
-0.13993409
0.04962180
-0.37235615
0.09059624
0.03716912
-0.13493660
-0.16187719
0.04079220
0.01108391
-0.13118131
0.17095581
-0.33863035
-0.16975673
0.13996969
0.22749080
0.01248884
-0.21597701
-0.04437056
0.16072038
-0.05761717
-0.06277285
0.08753493
0.10804922
0.10880103
0.00129272
0.06079586
-0.00723240
0.11451652
-0.08859745
-0.20117947
-0.14729249
-0.02904679
-0.19739172
0.11775189
-0.09027280
0.01770539
-0.05343676
0.01187222
-0.26237258
-0.04475993
0.06542683
0.04511209
-0.19086006
-0.07501632
-0.01697945
-0.09774849
-0.10987294
-0.10534969
-0.00635332
-0.16082215
-0.25296661
0.09061460
0.04079787
-0.07762567
-0.21903855
-0.16658290
-0.02704104
-0.03642876
-0.05635605
-0.28585628
0.05723327
0.07093613
0.15765995
-0.04587240
0.00913691
0.00097469
-0.00129014
-0.08744902
-0.10096332
-0.02112879
-0.07688733
0.00640592
-0.09467711
-0.06711526
-0.08445711
0.01065980
0.09668881
-0.25386027
-0.07766987
-0.06407793
-0.02630449
-0.06301334
-0.07806044
-0.04625782
0.07695720
-0.08665796
-0.35000592
-0.36039665
-0.12984878
-0.21866791
-0.14671491
0.13931975
-0.10427096
-0.43283170
-0.04681979
0.04296005
-0.14869826
0.00828786
-0.26200861
-0.06894791
-0.13007696
0.20188165
-0.18725072
-0.09036514
-0.09472366
0.01566564
-0.11620112
0.07724176
0.04373670
-0.13058703
-0.09209682
-0.04899960
-0.05072457
-0.06887405
-0.17122467
-0.09877008
0.04028887
0.10937798
-0.26067731
0.12648010
-0.06756247
0.02064287
-0.03314601
-0.11385962
0.14576063
-0.01849441
-0.07422549
0.10181705
0.08259752
0.12605359
-0.10529257
-0.18839793
0.05795915
-0.18991199
-0.02525522
0.03817473
-0.07468852
0.13026893
0.06461997
0.06544749
0.13948950
-0.14265053
0.07084042
-0.04246809
0.08623617
0.05805134
-0.09864713
0.01772809
0.10472172
-0.14290723
-0.30803922
-0.15570240
-0.02010214
-0.18821539
0.11196158
-0.40362230
-0.22849220
0.12558556
-0.33647594
0.05979012
-0.18394427
-0.02261150
-0.19342546
-0.58905810
0.07476182
-0.21790947
-0.03743747
0.10280611
0.02815211
0.00172199
0.07036758
0.10206985
-0.18518393
0.24459586
-0.02847661
0.02100931
-0.11125948
-0.29563236
0.06481354
0.27879849
-0.33419666
0.06121102
0.20865743
0.04190014
-0.08174521
-0.08265322
0.11499343
0.15029724
-0.43607351
-0.00679062
-0.75887185
-0.53293926
-0.02142240
-0.23585893
-0.10193272
-0.03759158
-0.12153592
0.01931548
0.02030345
-0.22635438
-0.57012361
-0.06259611
-0.69892317
-0.25370806
0.11229762
-0.20987172
0.01818840
-0.39069468
0.19960809
-0.01223633
-0.56295210
0.20476371
-0.12151677
0.02793605
-0.16148125
-0.06361763
-0.03936141
-0.09517250
-0.06770913
0.19121373
-0.23285200
-0.39314079
-0.31856111
0.08528247
-0.34839121
0.04054363
-0.43505090
-0.08762685
-0.28961658
0.28980342
0.00699389
-0.00007502
-0.24016944
0.06029636
-0.51850271
0.16865660
0.17183779
-0.13294289
0.10641085
0.03613924
0.00998468
-0.22796983
-0.07148402
-0.23596418
-0.31203219
0.33088437
-0.17599028
0.26509169
-0.04433077
0.28373715
0.10678868
-0.24605297
0.15254043
-0.21238832
-0.41548112
0.14243574
-0.01350603
0.08936866
-0.24109913
-0.08145057
-0.04780502
-0.19281246
-0.31971201
0.06291877
0.00078532
-0.10614191
0.08628457
0.31115082
0.20383961
-0.11570243
0.21854720
0.28238922
0.02906713
0.02850331
-0.07768014
-0.20735760
-0.19040306
-0.40098765
-0.15601860
-0.01956914
-0.05556256
-0.18042414
-0.19960263
-0.65562987
-0.06561679
0.17330413
-0.03856247
-0.07756037
0.21001260
-0.27630058
-0.15358658
-0.18699627
-0.09818853
-0.35402402
0.02000199
-0.40946713
-0.47845376
-0.09530247
0.18470983
-0.05906577
-0.47483623
-0.18096825
-0.20822163
-0.18185581
-0.03067739
0.22428253
0.13283221
-0.03190742
0.13365439
-0.03083809
-0.07735004
-0.17333737
-0.27975020
-0.42517886
-0.11240596
0.34230724
-0.51106322
0.15943752
-0.02537709
-0.37720829
-0.21312757
-0.12396972
-0.55173981
0.18712018
-0.02621800
-0.14691371
-0.00317733
-0.48713157
-0.04576007
0.04667750
0.15243769
-0.48963973
-0.44398835
-0.02280109
0.14643626
-0.62661141
0.00910902
-0.03804697
0.23276491
-0.05256911
-0.16946149
0.13444524
0.19944197
-0.01056189
-0.04384002
0.11930893
0.15055045
-0.03851372
-0.23357385
-0.11116682
-0.07709197
-0.12961286
-0.20527926
0.18722558
-0.08517046
-0.25730932
0.06604661
0.00628805
-0.40246245
-0.15545990
0.13081917
0.06570249
0.13622275
-0.07528296
0.04482374
0.08905130
-0.06385466
0.15200609
-0.13843574
-0.18062550
-0.13016507
-0.08697709
0.08418858
-0.01821656
-0.12170722
-0.34914008
-0.00612774
-0.00491974
0.05593327
-0.04059588
-0.14054136
-0.16843291
-0.28247097
-0.08608692
-0.20668846
-0.09571306
0.05378946
-0.32909128
-0.04549879
-0.34780243
0.16946751
-0.07732943
-0.16477996
0.06503541
-0.30782700
-0.09789679
0.02680311
-0.05157067
-0.04256117
-0.34741512
-0.02044726
0.02626767
-0.23540334
0.13002558
-0.18279687
0.00177415
-0.30208340
-0.34205097
-0.02866127
-0.33729318
-0.24608700
0.14563209
-0.11602125
-0.28360060
-0.31805494
-0.09419112
-0.25293025
0.02585723
0.08303635
0.06969222
-0.30548897
0.18364441
-0.18672492
0.16603824
-0.15544294
-0.12538542
-0.39006382
0.27512711
0.05709283
0.03563001
0.24889930
0.08187017
-0.05985401
-0.32478371
-0.11761998
-0.21546249
-0.35604423
-0.22578959
-0.09896231
0.09033064
-0.22713290
0.26907557
-0.05688021
-0.04433357
0.05499890
-0.78862607
-0.48853812
0.42968938
-0.08895133
-0.04547014
-0.03777320
-0.04250043
-0.14655282
-0.14483592
-0.23172905
0.10966723
-0.06301508
0.04402321
0.19101095
-0.03564751
0.07282777
-0.06690219
0.14395547
0.13787469
-0.17068568
-0.04855619
-0.11041414
-0.44200668
-0.07414096
-0.36048886
-0.07950765
-0.11583886
-0.25847307
-0.07074498
-0.21798831
0.09612922
0.03638516
-0.07619549
-0.25899696
0.04939806
-0.10095397
0.06754701
0.06883994
-0.12546906
-0.14151840
0.11933678
-0.26767102
0.03313274
-0.13586199
-0.22207116
-0.09147861
-0.08062571
0.16158652
-0.04668200
0.26072109
0.09463324
-0.08485499
-0.26054963
-0.01781740
-0.16100433
-0.25198442
-0.40605688
-0.04380382
0.03895557
-0.03220957
0.12418592
0.10446812
-0.05342858
0.11042536
-0.40813580
-0.57839710
0.17910004
-0.18065365
-0.22875255
0.11612453
0.00353486
-0.12892996
-0.09494948
-0.42705613
0.08866636
-0.18340075
-0.06362792
-0.04588149
-0.04557726
-0.07878412
-0.00579457
0.07614544
0.05532642
-0.02111548
-0.10200556
-0.19502684
-0.49210379
-0.10236211
-0.19038096
-0.08403826
-0.14905380
-0.38775903
-0.23475917
-0.01725746
0.04378599
0.02819061
-0.00705433
0.00664315
0.07821566
-0.04973409
-0.05146920
0.08273453
-0.01622286
-0.15259998
-0.02124449
-0.11161067
0.00608426
0.06136450
0.08380782
-0.01913750
0.02396473
0.00944502
-0.10538874
-0.10305296
-0.06083090
0.06010411
0.04481836
-0.08044147
-0.17268124
0.06600151
0.06028855
-0.06858995
0.01695250
0.07412889
-0.10158112
-0.06577417
0.05459548
-0.08663472
0.07581483
0.06554853
-0.11027927
0.10450072
0.00163821
0.00289305
-0.07122844
0.02056768
-0.08834558
-0.01032863
0.05530814
0.06395159
0.00858703
-0.04541393
0.01389457
0.03367789
0.08162223
-0.05339554
-0.08545222
-0.10363615
-0.02188049
-0.03154107
-0.01496498
0.02479944
0.03642865
0.00086041
-0.04420626
-0.03201175
-0.11729965
0.13977903
-0.27750051
0.03600569
-0.30684432
0.38200021
-0.06523904
0.20030020
-0.01198312
0.02605901
0.07289112
-0.16220504
-0.43875358
-0.07585304
0.09043933
0.14540155
-0.23867497
-0.26849255
-0.14632171
-0.35143143
-0.08987419
0.13425507
-0.14099970
-0.16861059
0.09593607
0.07890457
-0.00088283
-0.00678464
0.12940553
-0.33023030
-0.05318180
-0.11973033
-0.36881378
-0.00636813
0.06836014
-0.10960990
-0.07253285
-0.02379912
-0.24784070
-0.18422799
-0.03616421
0.01556384
0.16869690
0.27071655
-0.15008412
0.17792884
-0.22217077
-0.17146221
-0.02492679
-0.41647378
-0.17668438
-0.21203527
0.05645554
-0.05872931
0.07046486
-0.26225200
-0.03029519
0.11391319
-0.37899563
-0.00276462
0.14764042
-0.04907302
0.30919129
-0.31195131
0.10781315
-0.07008643
0.05183307
0.09221447
-0.59628308
-0.17677984
0.00524119
-0.15646340
0.03374749
-0.14937763
0.18612158
0.03772460
-0.05274588
-0.13598391
0.23600498
0.03439743
-0.22226274
-0.34020269
-0.04957400
-0.42337531
0.15429865
-0.05300121
-0.13953488
0.11132079
-0.15838136
-0.52884561
-0.35312104
-0.07755114
-0.00118006
-0.23394901
0.15307049
-0.05096566
0.04446638
-0.42577180
-0.22778031
-0.05842298
-0.09488756
-0.00427544
0.10787226
0.04002631
-0.04863429
0.25230259
-0.24523123
0.00853416
0.10480123
-0.20666246
0.11922967
0.15185039
-0.07287638
0.37507531
-0.11478910
-0.04097804
-0.01428284
-0.02419229
0.06540618
-0.26440072
-0.02564560
-0.17042455
-0.33406922
0.07866637
-0.37389001
-0.30875883
0.17408274
-0.14051741
0.07631286
0.13848014
0.14864157
0.08369023
-0.12983693
-0.03858352
0.10636179
-0.22364776
0.04658858
-0.03458825
-0.07813600
0.02964632
-0.07522431
-0.07443038
0.08549552
-0.12998848
-0.06010133
-0.12476465
-0.06599818
-0.01603123
0.06624381
0.12212703
-0.02732068
0.03013544
-0.11763293
-0.13214998
-0.00727191
-0.09938328
0.25580728
-0.13407373
0.00364127
-0.12311832
0.08480854
0.01951895
-0.11607987
0.08931442
0.12530626
-0.08416384
0.04970659
-0.02535111
0.10231435
0.09307004
0.03255400
0.13690254
-0.17414430
0.05327009
-0.01647557
0.00873171
0.22454539
0.01704646
-0.01878188
0.10090175
-0.16891234
0.03420438
-0.01292145
-0.05518340
-0.07568891
0.14514722
-0.01101973
-0.10597550
-0.17879386
-0.28276220
-0.10557317
-0.28089765
-0.51105481
0.02950947
-0.25416657
0.18708707
-0.23702903
0.26292399
-0.03554407
-0.18568963
0.02791515
-0.10070065
-0.10369067
-0.03124562
-0.15499359
-0.22002362
0.21233855
0.19871731
-0.04763166
-0.46308291
-0.07581946
-0.33907861
-0.22258240
-0.24318013
-0.48907417
0.06353061
0.01743447
-0.08560026
-0.37254009
-0.00064208
-0.30939925
-0.57839608
0.15127598
0.00993466
-0.08763533
-0.25447726
-0.15323132
-0.00309509
-0.08179926
0.15124156
-0.42994127
0.01923700
0.14778428
0.25588673
-0.21477990
-0.04768383
0.16976969
-0.52763849
0.04895292
-0.10586435
0.07744391
-0.27753446
0.13693835
0.16701886
-0.12096643
-0.01875689
0.36829785
-0.42517692
-0.02856297
0.06852255
-0.12883535
0.03154348
-0.11048165
-0.34710592
0.06778118
-0.09499630
-0.01112789
-0.12476028
0.10613816
0.06251348
-0.58545911
-0.33018544
0.06065574
-0.33336204
0.01221927
-0.31159598
-0.03914099
-0.18083030
0.19577801
-0.11477505
0.11308502
-0.01926006
-0.19257379
-0.04117890
0.16644940
-0.18332684
0.06080419
0.07696419
-0.01927056
-0.03908827
-0.11149422
-0.21444972
-0.11452429
-0.06787288
-0.19674660
-0.10788184
0.10474415
-0.08170590
-0.17242822
-0.21010119
-0.19757886
0.03242151
-0.16053361
-0.27986395
0.13918363
0.03584148
-0.17165127
-0.15557182
-0.18929075
-0.13616744
-0.17857498
-0.16570850
0.03612578
0.29760858
0.06424150
0.28406712
-0.06260812
-0.33675617
-0.00114304
0.07604367
0.03667935
-0.26766208
-0.01350222
0.07443549
-0.33895990
-0.03738897
-0.35113221
0.10197737
-0.10044318
-0.20482840
-0.37573531
-0.00784956
-0.03634473
-0.03324160
-0.09799263
-0.04321686
0.08480582
0.02042786
-0.15574165
-0.28907409
0.20084159
-0.11717288
-0.02955386
-0.05026032
0.05357001
-0.12801123
0.06787749
-0.43631727
-0.06027585
-0.12708087
-0.03718679
-0.16913262
-0.03166210
0.01177637
-0.17142600
-0.39299646
-0.11261835
0.11787254
-0.24806720
-0.23525031
0.09896862
-0.05952249
0.13820349
-0.30509755
-0.08921937
-0.23943175
-0.04618128
0.05073883
0.00267426
0.06583676
0.10853054
-0.02583245
-0.16100785
0.05733565
-0.09157649
-0.16477233
-0.01535512
0.05766644
-0.21734552
0.00920216
-0.06534372
0.07413975
0.02143352
0.06553527
0.05929192
-0.21680054
-0.01973280
0.00544643
-0.04853019
-0.13414770
0.06613380
-0.18687344
0.11154005
0.00692212
-0.06970299
0.01877123
-0.03489776
-0.07548539
-0.02810984
-0.04404490
-0.07965661
-0.21002723
0.17641638
-0.35782754
-0.34969354
-0.27886549
-0.03883028
-0.34370816
-0.04244921
0.08187394
0.14200993
-0.01222883
-0.24924937
0.16353418
-0.55547923
-0.05566429
0.15713061
-0.15185823
0.05743329
-0.05743726
-0.04631138
0.03651596
-0.10044900
-0.00665245
-0.10194580
0.14230111
-0.10821959
0.16621244
0.00030971
0.26105091
-0.11215293
-0.26365182
-0.20104951
-0.37065867
-0.19701481
0.15722069
-0.10718248
-0.27238813
-0.36030135
0.04796956
-0.24012601
-0.12923791
-0.18034723
-0.34534886
0.00845751
0.13837296
-0.02528434
-0.14244480
-0.13510273
-0.03743250
-0.08963460
-0.18252732
0.10316063
-0.20899397
0.12049887
-0.11539894
-0.17347653
0.01804310
-0.18666628
0.01293201
-0.21728802
-0.20741227
0.18304001
-0.02085145
-0.13866231
-0.03239658
0.21054181
-0.13223372
-0.29879680
0.15377425
-0.15270045
-0.02834656
-0.19280325
0.02837043
0.05833428
0.15544142
0.15658277
-0.10687536
-0.18200244
-0.03756007
0.09567889
-0.07995801
0.08003003
0.17287761
0.00888493
0.08566408
0.00328012
-0.02212179
-0.44592124
0.06750453
-0.05726152
0.08461943
-0.10079281
-0.00196328
0.02237076
-0.22148338
-0.21406613
-0.15457991
-0.20351891
-0.11026327
-0.04645361
-0.08571683
-0.12039032
0.06216326
-0.24851809
-0.24603917
0.00332613
-0.14243178
-0.20486107
-0.04895801
-0.12937483
-0.00893788
-0.33447245
0.02761294
-0.11692331
-0.17457174
0.06412465
-0.22665583
0.13989565
-0.02762134
-0.21673824
-0.14813074
0.01138437
0.01227452
-0.09744142
0.05964001
0.00449807
0.30162135
-0.01793924
-0.09479476
0.00153726
-0.00528363
-0.18332925
-0.04968658
0.07229256
0.04750304
0.12204968
0.06136075
-0.16838710
0.14191270
0.06474877
0.08167603
-0.15064900
0.01387849
0.18254600
-0.10417045
-0.09016709
0.24884628
0.09849886
0.09848738
0.15997897
0.10466302
0.12755781
0.17351724
0.11765003
0.15141438
0.02474147
-0.17646709
0.18876155
0.14838146
-0.07056069
0.05948946
-0.22193767
0.02174687
-0.17597386
0.36974433
0.19387116
0.29081413
0.09770922
0.11144954
-0.08098067
-0.15433498
0.26749405
0.06495137
0.34395465
-0.03941107
-0.02626033
0.03582045
-0.05558670
-0.03690194
-0.10116497
0.09908751
0.20412859
-0.00210347
0.15639792
-0.04455728
-0.00255478
0.14894962
-0.03238511
0.08606075
-0.26326561
0.11547147
0.11150003
-0.00908380
-0.05306581
-0.06291816
0.12471029
-0.34338096
-0.07816729
-0.06381007
0.24942647
0.02213116
-0.02718792
-0.36582118
-0.12349515
-0.13886683
0.08708443
-0.11582231
-0.33228782
0.03981950
-0.17857873
-0.37475207
-0.23267353
0.04346090
-0.24058439
-0.30888486
0.23294517
-0.00681599
-0.07553569
-0.45213151
-0.12190664
0.05032440
-0.00010715
0.12509249
-0.12296147
-0.01052093
0.19489752
0.14697036
-0.17939876
0.16236439
0.01610889
-0.39445925
-0.07527435
0.04806143
0.00413008
-0.01359629
-0.15800673
0.18530835
0.18624341
-0.02047377
0.12644632
-0.35457608
0.00089724
-0.07053678
-0.14323339
0.13156426
-0.10409547
-0.28680021
0.13834833
0.01842066
-0.12749960
-0.20803796
-0.30076036
0.03637458
0.02316806
-0.35059270
-0.05421263
-0.02406660
-0.17387766
0.02452939
-0.06931171
0.16524372
0.12469237
-0.00638012
0.14056051
-0.40943271
0.07489789
0.18075152
0.17885242
-0.19060497
0.12957363
0.08466946
0.11335045
-0.17420413
-0.00672441
-0.38840607
0.07894912
0.16154195
-0.14125900
-0.14517240
-0.03533166
-0.00422721
0.16483678
-0.14716226
-0.11907105
0.00246893
0.13531700
-0.11726864
0.13213193
-0.18686049
0.03767044
0.00519342
-0.01585611
-0.22749688
-0.11411417
0.02225537
-0.02831378
-0.21286608
-0.06478006
0.11050896
0.00728016
0.09094333
-0.24259734
0.16616777
-0.08366592
-0.41608986
0.03541054
-0.05776943
-0.05028249
0.01132307
-0.21384385
-0.05281340
-0.14199811
0.11609323
-0.17514922
-0.35485587
-0.00810022
-0.22424215
0.18547072
-0.14761667
-0.02394868
-0.17913345
-0.17915529
-0.08604626
-0.36514440
-0.12784332
0.04967645
-0.32828259
0.05358214
0.15316768
-0.21452883
0.10316450
-0.12882689
-0.22583838
-0.15154879
-0.32165009
-0.02523360
-0.03258331
-0.19932412
-0.02167286
-0.09224204
-0.36825442
0.10094596
-0.05220032
-0.32890072
-0.06719904
-0.12922233
0.01532899
0.10499949
-0.13842216
0.07619934
-0.16519509
-0.16042739
0.13026713
-0.10059605
-0.24148574
-0.12089418
-0.19947508
0.03580793
-0.00959174
-0.20135486
-0.21480080
-0.42220685
-0.11856516
-0.06443624
-0.18930325
-0.08174983
-0.12113983
-0.11734834
0.12506276
-0.02079884
-0.30081674
-0.46491528
-0.06760553
0.18612984
-0.19411848
-0.06999032
-0.33858922
0.09359249
-0.27597046
-0.15963309
0.08308704
0.17994933
-0.05398806
-0.21364520
-0.28207943
-0.10261282
-0.02432825
-0.35070616
-0.12523715
-0.14240552
-0.06018134
0.09718751
0.03269626
-0.02995410
-0.03506369
-0.06245916
-0.04153666
-0.22173204
-0.15482657
0.11690976
-0.03228603
-0.34937000
0.01784491
0.02807806
0.19956461
0.03142896
0.04384699
0.05251822
-0.10674769
-0.45971105
-0.18365081
0.03347906
-0.07706510
0.04576674
0.02786336
0.03301015
-0.05482808
-0.08438180
-0.37514067
-0.17267750
-0.14018075
0.23993249
-0.01307238
-0.08411615
-0.17334715
-0.18781678
-0.00031894
-0.01213572
-0.20608599
0.05924761
-0.21367940
-0.23567335
0.02748840
-0.02552757
-0.15142529
0.00286232
-0.10797828
0.05602691
-0.22401407
-0.41682190
-0.19154942
0.19894296
0.03050150
-0.06969475
-0.29482836
-0.07031852
0.15489896
0.02093585
-0.29608390
-0.08192537
-0.40974697
-0.02437702
-0.22824521
0.07885611
-0.31728265
-0.32992285
0.18959755
-0.01210342
0.05908252
-0.02692957
0.16381074
-0.56222320
-0.01394221
-0.14371458
0.01708134
-0.14939333
-0.18210013
-0.04642028
0.01453797
-0.05420157
-0.02680504
-0.24322869
0.18340804
0.02488875
0.07740925
-0.34555259
-0.12947790
0.00874677
-0.09467827
0.05290207
0.07373762
-0.14437260
-0.05909944
-0.24346368
0.08302888
-0.11264946
-0.07109313
-0.01055449
-0.10034822
0.10187568
-0.03361556
0.04442155
-0.03164972
0.18364653
-0.00732742
-0.06159092
0.00499062
-0.12610623
-0.11271894
0.12831140
-0.05259416
0.08762129
-0.31074232
0.08686628
-0.00873996
-0.60123336
-0.06376667
-0.07787938
0.10196349
0.07353050
0.13054915
-0.42273626
-0.07177090
-0.12988298
-0.21049809
-0.18508843
-0.27880856
-0.02167323
0.01973835
0.06601264
0.15925869
-0.39203358
0.14602818
-0.08692889
-0.39576790
-0.16421494
-0.19850245
0.04106829
-0.25464725
-0.46901086
-0.01671155
0.06506684
-0.02809792
-0.16902156
0.14518246
-0.04848672
-0.06774326
-0.53797591
-0.10333178
-0.03441729
-0.19073431
-0.42672870
-0.14901641
-0.04942634
-0.13056390
-0.21264182
-0.56479448
-0.14212894
0.08913320
0.19359542
-0.11830029
-0.15438098
0.01217244
-0.34227812
0.00159228
-0.02014136
-0.44836053
0.14690781
-0.40000328
0.09365493
-0.01304716
0.06728472
-0.37328193
-0.23399134
0.03150675
0.04961811
-0.25731188
-0.12761377
-0.17067437
0.03424458
-0.31701458
-0.27041158
-0.14129202
0.08366736
-0.65760267
0.06488252
-0.02052397
-0.14826953
-0.37458846
-0.48081267
-0.15351017
-0.40263954
-0.15087332
-0.29987532
0.16517183
-0.05060292
0.15543869
-0.16071576
0.20689116
-0.06253646
-0.11671386
-0.20544802
0.00296715
-0.42445973
-0.25169447
0.06923631
0.04165312
0.24031298
-0.54109156
-0.22876167
-0.26968616
0.02384790
0.11463205
-0.05904862
0.00649404
0.02138158
0.03076313
-0.25820202
0.10517861
-0.15474632
-0.30736744
-0.08299397
-0.05750021
-0.23954818
0.14007306
0.00569281
-0.15547778
0.07132073
-0.28043860
-0.65220183
-0.12886277
-0.02496070
0.01829846
-0.56973463
-0.04024127
0.03728327
-0.19887337
0.13170351
-0.08962060
0.15147629
-0.31745458
-0.29327220
0.11395606
-0.29123765
-0.16689712
-0.29367578
-0.02898822
-0.02782721
-0.54848170
0.04247778
-0.12966576
-0.16487651
-0.69556624
-0.34097552
-0.09734965
-0.04236294
-0.30890706
-0.39981914
0.19889215
-0.02216799
0.09701380
0.01912338
0.15859024
-0.43442968
-0.03098205
-0.26704174
0.05467302
-0.35300881
-0.29488081
-0.02036339
0.08775827
0.17601809
-0.56868982
-0.26661494
-0.02706019
0.20166366
0.20247933
-0.33807728
-0.09163051
-0.20926403
-0.03774641
-0.31425253
0.13948861
0.12707137
-0.01941848
-0.27601516
-0.09792607
-0.18150038
0.15622553
0.13073751
-0.20628297
-0.03860573
-0.35647163
-0.50410515
-0.04736497
0.09209488
0.05678008
-0.61318117
-0.07204375
-0.01451232
-0.26126689
0.25006723
-0.11717281
0.01565581
-0.22570342
-0.25084442
0.16762878
-0.76417196
0.01697168
-0.21185789
-0.24017781
-0.09060067
0.14036423
0.08553195
-0.09263135
-0.10963030
-0.07548026
-0.06586541
-0.15314424
0.00913895
-0.14457627
-0.17683248
-0.17915504
0.10905749
0.04549607
-0.01856877
0.27658188
-0.00197019
-0.08810529
0.07286772
-0.08427576
-0.11362106
-0.06276412
0.05659696
0.17121267
-0.14961916
0.10134025
-0.28631794
0.14041306
-0.01513494
0.22135371
0.01013108
0.03442048
0.05745678
-0.07484046
0.04041901
-0.21198773
-0.07909155
-0.05948621
0.05036719
0.00439242
-0.08784321
-0.10742506
0.05249686
-0.11929518
0.07539944
0.11765515
0.15467866
-0.13554512
0.01718452
0.06719457
-0.11489610
-0.01988809
-0.08776570
-0.28334999
0.08193295
-0.13251705
-0.00615838
-0.03701608
0.05292818
0.08004767
-0.51407343
0.04937698
-0.24624023
0.18848962
-0.16795090
-0.07604802
-0.64224100
-0.00655475
-0.42757556
0.03994077
0.08028239
0.07600453
-0.19920135
0.25422454
0.00226191
-0.50935513
-0.05879977
0.00213623
0.18678688
-0.43534261
0.25776786
-0.11914386
-0.06035323
-0.45249102
-0.03925736
-0.45179099
0.09159090
0.00922356
-0.07963449
-0.08093408
0.04874387
-0.27362362
-0.11761877
-0.08159298
-0.04830018
-0.44868276
-0.17265368
-0.03900196
-0.03406327
-0.57671791
-0.16438866
0.03760448
0.10143457
-0.19493148
0.34007400
-0.14593548
-0.37678406
-0.32934016
-0.67758399
0.03383259
-0.14023426
-0.19567627
-0.18540235
-0.54740971
-0.26545072
-0.03954488
-0.03652003
-0.46537605
-0.45422593
0.00562721
-0.32806471
0.11711033
-0.11882373
-0.23795731
0.04973587
-0.18671827
-0.02707266
0.04350673
0.14723451
-0.06964151
0.01723968
-0.20595026
0.03124714
-0.31080186
-0.09707393
-0.15462458
0.03823251
0.16781794
-0.01631729
0.33859652
-0.11176990
0.30191538
-0.20527399
0.07696366
-0.01557798
-0.00204921
0.02380714
-0.01956077
-0.17853865
0.06572405
0.21880221
-0.23358178
0.23087186
0.03024065
-0.12652789
0.09218331
-0.03598998
0.06500741
-0.04331157
-0.26290697
-0.39241126
-0.05419010
0.00114507
0.08226950
-0.59680200
-0.33775267
0.07983419
-0.03331392
0.29768920
0.17615759
0.07853237
0.07155093
-0.04153762
0.09734151
-0.31147292
-0.19250551
0.08229912
-0.02004635
-0.33276188
0.08875098
0.04101764
-0.29981810
0.15787682
0.06584023
-0.07533213
-0.38014483
-0.17005894
0.02279916
-0.01014833
0.19347417
-0.04475499
0.03757453
-0.14416966
0.02922913
-0.30441532
0.17539090
-0.10748490
0.13559049
-0.00530310
-0.09247442
-0.06864787
0.08980012
0.03444072
-0.17817022
-0.41313770
-0.08405959
-0.46491212
-0.30994934
-0.06964602
0.10434365
-0.01372780
-0.45347929
-0.18865934
0.04758225
-0.13368954
-0.07945779
-0.17517559
0.04488583
0.02055869
0.00112264
-0.41955429
-0.11249186
0.03253756
-0.21277834
-0.29661435
-0.11173634
-0.16704944
0.06357185
-0.51553524
-0.08158098
-0.00941646
0.02037393
-0.20213129
-0.01664928
-0.46175006
0.04491253
-0.17849052
-0.11974423
0.06933723
-0.32337931
0.08502641
-0.45634297
0.16104378
0.03656844
-0.08840569
-0.17427047
-0.34687388
0.12839320
-0.28200680
-0.18530145
-0.16086467
-0.21394086
-0.01078527
-0.04826198
0.01005223
-0.01365240
-0.05027760
0.00154400
-0.06058929
0.06898393
-0.06332572
-0.05870405
0.01379370
-0.07927509
0.05069781
-0.08273289
0.05772534
0.08562308
-0.01380323
0.03913413
0.07194590
0.02632570
-0.06222298
0.05078990
0.03713666
-0.07600959
0.02684656
0.02363318
-0.07239082
0.00506689
-0.07010783
-0.01856451
0.04889791
0.07242766
-0.07708216
-0.03057596
-0.05839547
0.07680957
-0.04401284
0.01243861
-0.08225270
0.03357246
0.07975323
-0.00504330
0.00509156
-0.06432077
-0.05649244
0.08114766
-0.05553214
-0.01908441
-0.06355391
0.00043810
-0.00657745
-0.05741685
-0.02945797
0.02837633
-0.05433976
0.07404011
0.06087788
-0.05536157
0.00096113
0.07007512
-0.00945808
-0.01652828
-0.04829802
0.06211331
-0.08152014
-0.15982775
-0.18918796
0.22658235
0.02689323
0.07718516
-0.41904724
0.02937349
0.03132228
-0.04330128
-0.02279191
-0.04945303
0.03920070
0.19182596
0.09074847
-0.47137108
0.06787606
0.12848461
-0.01005201
-0.35281014
0.14868765
-0.13889742
-0.19600913
-0.45100507
-0.21031998
-0.30380055
0.08705574
-0.18893890
-0.10816670
-0.09808653
0.08639924
0.16954204
-0.33004862
-0.31126782
-0.30405250
-0.18344323
-0.21066107
-0.06814168
0.08225165
-0.39847600
-0.14422862
-0.07323096
0.02858727
-0.19959071
0.36332369
-0.12330876
-0.28495640
-0.13643380
-0.37910438
0.09866617
0.14550194
-0.20418510
-0.19610576
-0.31327432
-0.29928726
0.08557893
-0.03533212
-0.55143338
-0.33003691
0.04532079
-0.20722623
-0.00360153
-0.20306158
-0.15317580
0.03256258
0.11426762
0.06989550
-0.08696605
-0.15913233
0.15881480
-0.24377166
-0.04384022
0.06728052
-0.08226335
-0.02923866
-0.16222459
-0.06928663
-0.20279160
-0.16348954
0.03257187
-0.27126145
0.11369946
-0.20307191
-0.15710089
-0.04298702
-0.13080952
0.05399140
-0.22290209
-0.25601920
0.12134968
-0.03703031
-0.33483434
-0.16252108
0.13108973
-0.03318913
0.05863547
-0.19700252
-0.19080468
-0.22251333
-0.03824759
-0.30656791
-0.03741835
0.06912462
-0.10718951
-0.29914048
-0.31852454
-0.05504182
0.03528324
-0.29153106
-0.06037048
-0.14629124
0.04239703
-0.08598493
-0.22357616
0.11871022
-0.37169123
0.27143031
-0.10169078
0.19574006
-0.10935663
0.06843195
-0.15563078
-0.20805213
-0.03251239
0.19611219
-0.27447370
-0.26427612
-0.10237699
-0.01076946
-0.03476879
0.05977387
-0.06581405
-0.09115174
0.00579574
-0.01043120
-0.10590578
0.16001758
0.00265172
-0.17395982
-0.07419726
-0.12733738
-0.08300983
-0.08254901
0.11541659
-0.21521771
-0.03614581
-0.32386467
-0.26883435
-0.04073093
0.01603754
0.01233681
0.01037120
-0.01332240
0.02974833
0.01163791
-0.23923104
-0.11939612
0.02076172
-0.13550808
-0.03560216
-0.19601803
-0.04354517
-0.07927517
-0.20603725
-0.18146136
-0.07833023
-0.07004248
0.02419685
-0.18769245
-0.07882315
-0.08954793
0.06771344
-0.40017965
-0.01146008
-0.03063697
-0.08312272
-0.27637547
-0.16540965
0.04464659
-0.26042387
0.05949548
-0.29550651
0.01283475
-0.02622620
-0.05614945
-0.01375066
-0.37796190
0.02663635
0.10720917
-0.38171351
-0.22573403
-0.22196375
0.09741744
-0.05222594
-0.24193898
0.34520167
-0.05422909
0.01820270
-0.18008971
0.18044399
-0.25664079
-0.06831682
-0.13570499
-0.14113881
-0.13581724
0.05899006
-0.01276604
-0.29705563
-0.33561969
-0.26817831
-0.40285268
0.05496092
-0.05498200
-0.02996679
-0.18569420
-0.18180887
-0.40652785
-0.16598845
0.19744064
0.16558108
-0.14170787
-0.01942579
0.09664829
-0.15702993
-0.27960280
-0.27230877
0.01084358
0.02059265
-0.09938321
-0.03646206
-0.60554451
-0.37717500
0.06688431
-0.31939718
-0.01280216
0.07058559
0.22959743
-0.04704296
0.18319099
-0.25231707
-0.18658133
-0.52077466
-0.14410760
0.03100227
0.15895195
0.07467989
-0.28561598
-0.05841770
0.01264987
-0.25675651
-0.43176439
-0.04938759
-0.54482466
-0.37513432
-0.39084366
-0.14830312
0.15147045
-0.36502641
-0.07758984
-0.09134278
0.03918174
-0.06862456
-0.13640505
-0.26195043
-0.07730025
-0.17716902
-0.26621392
-0.15181354
-0.04252103
-0.33282623
-0.06724304
0.19660795
-0.58228904
-0.00767173
-0.01483396
-0.22392192
-0.26548961
-0.23789535
-0.01979669
0.02195836
-0.34218583
0.02558124
-0.12954198
-0.68350333
0.08384799
0.08384933
-0.22230947
-0.44560850
-0.26384336
0.01450938
0.14519249
-0.22419901
-0.11420776
-0.17872076
-0.14827339
0.11905964
-0.22436662
-0.25224692
-0.34667856
-0.29439655
-0.21053928
-0.17269249
-0.18923225
-0.31957981
-0.41940719
-0.15209515
-0.16270845
-0.64187205
-0.24305937
-0.23428911
-0.18878610
0.08411125
0.03780753
-0.12087131
-0.35163334
-0.08897762
0.18983583
-0.34241807
-0.09946657
-0.53790045
0.11619720
-0.16315703
-0.47203305
0.30663967
0.20303749
-0.10768857
-0.52291721
-0.02412479
-0.31216070
0.12270390
0.09986983
-0.00926035
-0.28675738
0.20930931
0.36170903
-0.45454660
-0.07052916
0.04911356
0.08497051
0.06857911
0.22087827
-0.01248996
-0.05151091
-0.33120319
0.01179561
-0.27664632
0.05358865
-0.26259953
-0.01623831
-0.08452748
0.16770826
-0.18131138
-0.09033153
-0.06148405
-0.20652926
0.11131126
-0.15262547
-0.08539931
0.01568358
-0.27687293
-0.07008385
0.17835031
0.11259694
-0.03435521
0.36979905
-0.03152545
0.07516368
-0.43299383
-0.46003684
-0.01989203
-0.41575578
-0.10209619
-0.18066348
-0.29499838
-0.36270961
-0.16249131
-0.03509247
-0.16225472
-0.78196335
0.00576876
-0.35888752
0.04147663
-0.03345374
-0.53279543
0.04801982
0.18590577
0.05096778
0.06049355
-0.19888176
0.02237353
-0.39034915
0.25689915
0.12868129
-0.01111933
-0.05141708
-0.01694875
-0.21622927
-0.06595949
-0.05218923
0.00234839
-0.59258634
-0.06325138
-0.30201322
-0.27980253
-0.19111630
-0.07303609
0.05055390
-0.33293039
-0.42744848
-0.03641532
-0.08366746
0.13071297
-0.18931526
0.03121338
-0.02292812
0.00031663
-0.40688661
-0.07620940
-0.03605163
-0.13600694
-0.56749266
-0.09532397
-0.10023597
-0.31978223
-0.43838736
-0.22493386
-0.08638163
0.06681561
-0.24614839
-0.00531568
-0.16808949
0.10837922
-0.09736717
-0.02224701
0.01472146
-0.44597736
0.17122833
-0.36498430
0.11050174
0.06679843
-0.02112164
-0.27744573
0.03594249
0.07323870
-0.11102552
-0.25222698
-0.21822900
-0.14706701
0.01920181
-0.47451830
-0.25587997
-0.32129350
0.16442341
-0.50607544
-0.02423232
-0.14328915
-0.07566865
-0.19598329
-0.74808329
-0.12135620
-0.15629646
-0.35302037
-0.21710426
0.16302596
-0.07047880
0.05838436
-0.21092838
0.05286987
-0.01308407
-0.19333255
-0.16676840
0.07131639
-0.27363020
0.10206533
-0.02030470
-0.08507444
0.25540486
-0.07246207
-0.23439538
-0.47717020
-0.17605634
0.13615197
0.06448571
-0.05841812
0.01825266
-0.00116425
-0.29210380
0.16118070
-0.09688772
-0.10766811
-0.24035457
-0.41603848
-0.07749192
0.00705548
-0.05872187
-0.19999444
-0.10273191
-0.36134666
-0.42714390
-0.21196170
-0.44149208
-0.15007228
-0.64273238
0.12338819
-0.09787770
-0.15263274
0.13018909
-0.01809409
0.11615754
-0.34874764
-0.30245185
-0.14387551
-0.07652428
-0.14973101
0.01671625
-0.13488740
0.07924781
-0.21522504
-0.08937990
-0.05588468
0.07498883
-0.33143666
-0.20480826
0.10828417
-0.30843940
-0.30902386
-0.04202970
0.17103392
-0.33607355
-0.02717814
-0.51627201
-0.16977370
0.07157470
-0.06945208
-0.22119316
0.03000433
0.03743819
0.13866869
-0.12068146
-0.18122539
0.03220425
-0.15502304
-0.14999993
-0.27214319
-0.21005970
-0.00831774
0.13344656
-0.12039492
0.05531173
-0.03047223
-0.25779659
0.07705675
0.15315017
-0.06139562
-0.11454336
-0.49482217
0.00265227
0.06602726
-0.06083975
-0.12111206
-0.21103153
-0.26965699
-0.08466112
-0.20676145
-0.37340328
-0.18215849
-0.37623560
0.18067926
-0.02932283
0.23478669
-0.22345071
-0.11379789
-0.01136924
0.03170611
0.00218993
-0.27740806
-0.26371986
0.04505206
-0.02181480
-0.22553284
-0.07944988
-0.06091391
-0.03834143
0.03678005
0.03100317
0.11810824
-0.03782517
-0.12257415
-0.05411183
-0.00259051
-0.10283284
-0.13751429
-0.05812188
0.02690085
-0.03087986
-0.10098978
-0.00358205
-0.10177512
0.02806316
-0.00718733
-0.16524863
-0.08522838
0.00597815
-0.13969566
0.01270195
-0.04930723
-0.02454891
0.04666689
0.00935943
-0.07649703
-0.15775222
-0.00836823
-0.12052828
0.01939148
-0.00560216
0.03035004
-0.07960121
-0.03706872
-0.05941197
-0.06458233
-0.06690297
-0.03458160
-0.07108299
0.09814727
-0.06617211
0.06443349
-0.00456990
-0.01968891
0.04402519
-0.14323460
0.01013163
-0.00812206
-0.01042411
-0.05767705
-0.11875419
0.00255435
0.04803872
0.01684876
-0.06852334
-0.06667963
0.03711524
0.13846491
-0.04992858
-0.06691635
-0.08787598
-0.08369975
-0.09599011
-0.20787749
-0.06503293
0.13254301
-0.16755046
0.03811679
-0.06353233
-0.11635534
-0.13976231
0.13893087
-0.08288684
-0.09338856
-0.04622478
-0.26421934
0.01382528
-0.02504268
-0.30434343
0.08806672
0.10616522
-0.31210852
-0.48030704
0.02020265
-0.11415223
-0.12078573
0.06143515
-0.01787893
-0.13965073
-0.41770396
-0.12233506
-0.23400939
-0.02282013
-0.13656147
-0.14206335
-0.11165483
-0.15247309
0.20588517
0.14130118
0.09220044
0.01768233
-0.08333594
0.01805939
-0.16355586
-0.15168792
-0.04302051
0.16228054
-0.01991955
-0.10654932
-0.34996903
0.06630915
-0.28061095
-0.06291992
-0.22011219
0.11704897
-0.16064937
-0.04923377
-0.08648890
0.03673058
-0.11274957
-0.35222971
0.05936756
-0.18935770
-0.25424883
-0.02797204
-0.16011077
0.02786801
-0.14523813
-0.19350608
-0.37656617
-0.07143452
-0.23473673
-0.09421643
-0.14896283
-0.49285027
0.02406491
0.00296668
-0.08743417
0.17107044
0.12379965
-0.10516927
-0.21300532
0.07332115
0.01848153
-0.30361059
-0.11457612
-0.02342080
0.03476468
0.01769430
0.15809795
-0.31862974
0.12003384
0.16108760
0.14990349
0.15594922
-0.03818232
0.01613720
0.06661668
0.13523346
0.08745138
-0.04183970
-0.06894203
-0.14676021
-0.27557561
-0.30638179
0.06978126
0.09668512
-0.11791480
0.10028160
0.02539768
-0.15196584
-0.16040850
0.06784339
-0.05403517
-0.24351449
-0.04220670
0.00488612
-0.24280566
0.07179754
-0.16819614
0.04136844
-0.25084913
-0.00081601
0.08004419
-0.29770204
-0.05159523
0.14390570
-0.37342173
-0.18003519
-0.13258998
-0.08448472
0.17004418
0.02030159
0.04435240
-0.31269491
-0.24726363
-0.02377375
-0.22941980
-0.08689734
0.01006940
-0.17462024
-0.07417778
-0.25557551
-0.05991477
-0.39178434
0.21509823
-0.13492477
-0.07577357
-0.32828039
0.03191671
-0.13217276
-0.33530301
0.09501667
-0.07627808
-0.21376897
-0.09661693
-0.14976211
-0.12754929
0.01607867
-0.25171751
-0.27730170
0.10785288
-0.08577129
0.04434559
-0.14249086
-0.13096733
-0.05543434
-0.02660151
-0.12665309
0.01063903
0.02219547
0.06291326
-0.13353732
-0.03501724
0.09109463
-0.27768788
-0.04664370
-0.05121285
0.08223183
0.09955736
0.05649511
-0.10308168
0.03748080
-0.01633945
-0.01735888
-0.21361347
0.03226887
-0.15561961
-0.03447031
-0.19128698
-0.14151260
-0.16554421
-0.15330428
0.05550548
0.24950691
-0.27621606
-0.14602345
-0.07270962
-0.09370235
0.25513908
0.02387769
-0.47739279
0.04861350
0.24087542
0.11561407
-0.19449098
0.03104151
0.04682072
-0.30421981
0.19550417
-0.36271691
0.12391572
0.07086045
-0.57878095
-0.05942681
-0.05147318
-0.04825917
-0.51444429
-0.21143363
0.06059425
-0.04171431
0.05605962
-0.15467758
-0.19791123
0.02378545
-0.16156606
-0.01958032
0.25963002
0.13008296
-0.00846585
-0.13833791
0.19100474
-0.09579311
0.05318317
0.01346020
-0.07967251
0.24270956
-0.11376237
0.07083037
0.09069449
0.08722811
0.03748281
-0.08457106
-0.17775318
-0.00758391
0.13083804
0.10227537
-0.13759884
0.09573773
-0.13572368
0.37559003
-0.07012417
-0.15773045
-0.13555197
-0.25908908
-0.29408827
0.14669922
-0.48577440
0.00891237
-0.19623509
-0.10902061
-0.57736552
-0.30443740
-0.26739934
-0.15439488
-0.38549399
-0.55095857
0.11685994
0.01270399
0.03501313
0.05229735
0.10284860
-0.16225620
-0.05950444
0.04680519
0.01833296
-0.36211798
-0.02685476
0.05549436
-0.03257923
0.18299001
-0.06338837
-0.24155644
-0.23852675
0.02121641
0.01782697
-0.07486373
-0.07379119
-0.16364484
0.03624384
-0.32700875
0.21181178
-0.12201561
-0.19641793
-0.14221062
-0.20531632
-0.16787544
0.10061448
-0.02539139
-0.27076271
-0.03030671
-0.31841478
-0.45800325
-0.21353407
-0.04753755
-0.03457338
-0.50177425
0.13186592
-0.12621671
-0.27637061
0.12488724
-0.02619991
0.07395542
-0.18419582
-0.11214753
0.08156516
-0.52916688
0.18587285
0.02723119
-0.32573429
0.09704992
0.18628137
0.11975227
0.02210922
-0.16046156
0.04048773
-0.10822675
-0.15579863
-0.10299995
0.10445311
0.05232079
-0.04542155
0.08527856
0.11609454
0.04060868
0.09391101
-0.31519967
-0.00463148
0.06556728
0.06620603
-0.13793485
0.08175244
0.01161255
-0.00387757
-0.05530588
-0.09393249
-0.25345144
0.29395771
-0.04512903
0.15404606
-0.19101264
-0.04842209
-0.05912547
-0.15199079
-0.05059184
0.05480294
-0.00654318
-0.29865903
0.07056234
-0.10952343
0.23185517
0.03974535
0.18070352
-0.29954973
-0.01856143
0.08611441
0.06343155
0.03977932
0.05680838
-0.18534267
0.12464934
0.04267899
-0.01552963
-0.24883430
-0.18123455
-0.02862538
-0.13472176
-0.25026584
0.40440983
-0.20419738
-0.43236279
0.25910333
0.03742525
-0.38051754
-0.07575005
-0.09462080
-0.05959803
0.18703148
-0.06661009
-0.05656654
-0.11008845
-0.25436342
-0.08941886
0.01408592
-0.08971913
-0.06790416
-0.17388070
-0.11531454
-0.41479266
-0.19704570
-0.41981938
0.01286207
-0.14662512
-0.04956714
-0.06292001
-0.00044479
-0.06909399
-0.20397408
-0.06355198
-0.03234508
-0.19606936
-0.25737152
-0.26020363
0.08077113
0.00917125
-0.06680433
-0.23279013
-0.09019479
-0.24323824
0.06914870
-0.58928555
-0.05735131
0.31162843
0.02062254
-0.55487353
0.15383434
-0.26535958
0.10975271
-0.05308972
0.03347160
0.07603528
-0.07909571
0.01684318
-0.17000717
0.14873680
0.11649735
0.00267422
-0.12966968
-0.10473932
0.08704881
0.04975161
-0.03239952
0.09605545
-0.16433729
-0.01578252
0.00328283
0.01638544
0.18103698
0.06358449
0.06458603
-0.45102271
0.17626005
-0.03629132
-0.06826930
-0.12041112
-0.03511573
-0.16279864
0.09099917
0.09332199
-0.15598559
-0.56183481
0.00562212
-0.27631831
-0.34649944
-0.06251027
-0.03134102
-0.05913100
-0.41031766
-0.21505931
-0.08071671
0.02329570
-0.13456126
-0.08599550
0.09290673
0.00304629
-0.10180317
-0.20414305
-0.24306926
0.00579254
-0.24313316
-0.28539327
-0.18356639
0.11255588
-0.24880268
-0.10024415
-0.04671886
-0.16666822
0.14406860
0.03542582
-0.12530160
-0.37234730
0.06872106
-0.33038121
0.16670337
-0.11334006
-0.46681443
0.14852007
-0.31773779
0.08591364
-0.09989846
-0.01618521
0.23162392
-0.45135462
0.07603583
-0.44242972
-0.10347953
-0.27677125
-0.29811901
0.14704941
0.04149344
-0.15490967
0.11272158
-0.11945500
-0.17161180
-0.23605703
0.02852973
-0.00756776
0.10169011
0.08792611
-0.08800073
0.00766278
-0.07415097
-0.04305710
-0.15524875
-0.06903708
-0.05567057
0.03191880
-0.66352046
-0.09714179
-0.09421385
-0.04070821
-0.10719775
-0.17794497
-0.17068687
-0.13708661
0.16669585
0.00105292
0.06652205
0.02861113
-0.17635202
0.02642362
-0.16045071
-0.03992073
0.02500995
0.12797400
-0.10562717
-0.03278412
-0.05710047
-0.00373086
0.02863178
-0.05163877
-0.31242910
-0.13836464
-0.13978401
-0.12357409
-0.36766380
-0.33873206
0.26272717
0.07567002
0.06025312
-0.03198065
0.18353119
-0.20203325
-0.10769130
0.00002778
0.13902175
-0.02162840
-0.16062869
-0.10512806
-0.11560481
-0.10733569
0.09304465
-0.08222377
0.00047492
-0.02342364
-0.32689723
-0.01235397
0.20717232
0.21859622
-0.08356941
-0.20248596
-0.25860783
-0.12905128
-0.28169727
-0.00241227
-0.14630316
-0.14385606
0.04162941
0.07080101
-0.08323380
-0.15641326
0.13001528
-0.41778907
-0.05889338
-0.06119739
0.02866852
-0.01347383
-0.17210099
0.07724598
-0.09822685
-0.13006499
-0.10830222
-0.36582556
0.24499412
-0.01999431
0.08016516
-0.38973984
-0.10246781
-0.06535335
-0.13439120
-0.00401523
0.00829499
-0.03695663
-0.19433895
-0.09497683
0.02333196
-0.04275920
0.11891422
0.05631493
0.02285228
0.09995410
-0.00146667
0.04581031
-0.00825718
0.25172108
-0.06620442
0.03812916
0.06576210
-0.13400474
-0.34549350
0.07918937
-0.19711612
0.07876007
-0.09878217
0.22301471
-0.11693931
-0.28918424
-0.16900615
0.00389781
0.02935181
0.17338216
-0.23245336
0.09412860
0.14299002
-0.44046620
0.05851683
-0.02256519
-0.23946799
-0.01796530
0.16125186
-0.16726893
-0.14544065
0.18639001
0.00980533
-0.25958017
-0.43582448
-0.05820874
-0.13667016
-0.22443919
-0.11764222
0.04900144
-0.01120926
0.00661895
0.02046425
0.09445365
-0.21542467
0.04962105
-0.13206145
-0.05240855
-0.21059528
0.11025240
-0.26094514
0.04865444
-0.01392282
-0.12855130
-0.08064155
0.07729682
-0.14112453
0.14173311
-0.25202513
0.11366393
0.02764211
-0.13137601
-0.23124535
-0.19510192
0.05734257
-0.12404060
0.12136514
-0.33787256
0.12046460
-0.11807389
-0.17499556
-0.03502670
-0.08686364
0.07134365
0.00851014
-0.17685322
0.01754136
-0.01726689
-0.01895101
0.10486118
-0.32681903
-0.00404380
-0.13953686
0.07371924
0.02525914
0.01417755
-0.38996869
-0.36327714
-0.19682306
-0.01945886
-0.18296991
0.00635360
-0.03472448
-0.17579374
-0.41269386
-0.21427962
-0.09038984
0.05124934
0.08337658
-0.31019759
-0.05804368
0.03289372
-0.04069688
-0.19234335
0.06644537
-0.16772404
-0.05456781
-0.12418175
0.05799665
-0.20670034
0.00105767
-0.26229376
0.17625052
-0.18001476
-0.09675325
-0.04210939
0.07853393
0.12165459
0.05372158
-0.22470072
-0.14377314
-0.19483505
-0.19979657
0.12317225
-0.28612080
0.03090886
-0.08603860
-0.30247462
0.05371362
-0.06965945
-0.01346126
-0.37277135
-0.03072598
-0.02799210
0.07251421
-0.09552530
-0.03146443
-0.41515142
-0.08091393
0.01639147
-0.10674392
0.11208352
-0.36565262
0.02458845
-0.12609521
0.02500241
0.07772484
0.03244859
-0.04806264
0.00353943
-0.22367309
-0.10103700
-0.15533850
-0.03388860
-0.15556394
-0.12552889
0.28038770
-0.00405639
-0.19583763
-0.13002604
-0.07538557
-0.09727715
-0.03282840
-0.02343883
-0.23682377
-0.14020954
-0.04181176
-0.26313034
-0.08506405
-0.12666766
-0.22091436
-0.53303725
-0.06901237
-0.11163459
0.21795118
-0.33138880
-0.01612285
-0.23620677
0.04715846
-0.05862502
0.00090308
0.03330709
-0.04106285
-0.44048730
-0.06904662
0.12535827
-0.15148106
0.01497870
-0.20789637
0.12198078
-0.14094689
0.02821065
0.02955819
-0.14751858
-0.13448976
-0.23075350
-0.12873247
0.00367876
0.00490974
0.03118245
-0.15980500
-0.10988165
0.08031118
-0.09567168
0.15860587
0.12536535
-0.28564245
0.10310164
-0.11385945
0.02729805
0.00187659
-0.05151051
-0.29200897
0.08516422
-0.18810146
-0.02870493
-0.19635189
0.06313531
-0.22048186
0.01758963
0.00983873
-0.44394663
0.00862571
-0.04508490
-0.14181557
0.04599496
0.01448202
-0.38012496
-0.04142965
-0.12717754
-0.02590416
-0.10655678
-0.68740362
-0.24042696
0.03031877
-0.08728631
-0.32881188
-0.01902198
-0.06154804
-0.01629024
-0.22327611
-0.01115767
0.09974379
0.12784500
0.09499737
0.07303794
0.07396039
0.01717984
0.03440486
-0.05876824
-0.41955104
-0.28291875
-0.04668017
0.04018341
-0.13241768
-0.04984591
0.01981537
-0.10771693
0.03156530
-0.26784968
-0.04303415
-0.28779340
-0.44893256
-0.02434135
-0.12031513
0.13370003
-0.03664925
-0.00639450
-0.09932500
-0.30491582
0.10636385
-0.23372547
-0.29436454
-0.04063762
0.08640666
0.05962820
0.05135490
-0.12441748
-0.12194171
-0.00858793
-0.14538048
0.00626819
-0.17830820
0.00930568
0.06998484
0.14165935
-0.24512944
-0.22337900
0.16879767
0.08699516
-0.18931539
-0.09888744
0.01556539
-0.06653579
-0.15005170
-0.40367010
0.04656984
-0.07269080
-0.20706293
-0.35983869
-0.03796680
0.11507631
0.04852378
-0.20303464
0.11896102
-0.19529660
0.07265717
-0.07887255
-0.22473344
-0.00238911
0.04186658
-0.09644397
-0.45099789
0.08891975
-0.03690251
0.15237786
-0.12792577
-0.08180186
0.01894820
-0.40752807
0.09217705
0.13065237
0.06504228
-0.17945993
-0.43126732
-0.01792132
0.09941172
0.00897924
-0.02925197
-0.23370880
0.07303041
-0.20442407
-0.00994509
0.06219975
-0.12405314
0.03567494
-0.27990624
-0.35989732
0.07005198
0.10611844
-0.46309954
0.03983763
0.04432580
-0.15124707
-0.09717392
-0.35251385
-0.21375188
-0.15346652
-0.10937010
-0.12761663
-0.16442280
-0.11647240
0.06102297
-0.13215110
0.09415839
-0.10179315
-0.28949791
-0.26354307
0.06185476
-0.28387785
-0.06877630
0.03100039
0.11752892
-0.28915185
-0.09548174
-0.04092385
-0.29274252
-0.21030429
-0.07593388
0.19825050
0.02929112
-0.30378833
0.10903797
-0.16820180
0.12333234
-0.13916028
-0.26324454
-0.08926004
-0.47128201
-0.33920640
0.03003248
0.14719976
-0.11055635
-0.01268211
-0.12627754
-0.19455957
-0.05958233
-0.37789342
0.04313166
-0.31155607
-0.05397332
-0.04555549
-0.45167789
-0.08619934
-0.31708246
0.08257673
-0.28227067
-0.16626668
-0.18627976
-0.23568214
-0.24565278
-0.07115266
0.10348035
0.18858762
-0.40176889
-0.00363921
0.01860734
-0.36091951
-0.21904109
-0.23565391
-0.13390635
-0.10823422
-0.33043444
-0.12049148
0.03660229
0.08535749
-0.01030190
-0.15038238
0.07944040
0.08816322
-0.25019601
